{
"decoder/fully_connected/biases": 
[-0.04128258302807808, 0.053230222314596176, -0.01090897899121046, -0.012643938884139061, 0.007859629578888416, -0.0298339631408453, -0.015944382175803185, 0.04917513206601143, -0.0353546142578125, 0.01596732996404171], 

"decoder/fully_connected/biases/ExponentialMovingAverage": 
[-0.04122257977724075, 0.053156498819589615, -0.01090097613632679, -0.012667427770793438, 0.007825367152690887, -0.029799140989780426, -0.01591072790324688, 0.049112360924482346, -0.03531179949641228, 0.015980370342731476], 

"decoder/fully_connected/weights": 
[[-0.17292232811450958, 0.13573716580867767, 0.34098827838897705, 0.10473982989788055, -0.21458116173744202, -0.20108121633529663, 0.09239007532596588, -0.17936894297599792, -0.20986618101596832, -0.026487883180379868], [0.057740468531847, -0.23036853969097137, -0.017803078517317772, -0.21459122002124786, -0.007564619183540344, -0.17502284049987793, 0.08144284039735794, 0.07986335456371307, -0.008509942330420017, 0.12059461325407028], [-0.2264018952846527, 0.1754150241613388, -0.04606188088655472, 0.15465480089187622, 0.16295738518238068, -0.11352783441543579, 0.05321985483169556, 0.19928336143493652, 0.07882968336343765, 0.2092672735452652], [-0.21498268842697144, 0.17680329084396362, -0.1741441935300827, -0.022216711193323135, -0.10840209573507309, 0.14269036054611206, -0.039279740303754807, 0.10576211661100388, -0.034024305641651154, -0.12515927851200104], [-0.2601727545261383, 0.12687665224075317, 0.04725797474384308, 0.1525394469499588, 0.14912815392017365, -0.18292322754859924, 0.2208230346441269, -0.3934774100780487, 0.2383035570383072, 0.22928723692893982], [-0.10397090017795563, 0.05389507859945297, 0.05037953332066536, 0.05139801651239395, 0.17773909866809845, 0.06041399762034416, -0.28651657700538635, -0.04067336395382881, -0.057960133999586105, 0.06824440509080887], [0.03889831155538559, -0.08734191954135895, -0.17254222929477692, 0.014630104415118694, -0.24506816267967224, 0.17322520911693573, -0.05438712611794472, 0.10433465242385864, 0.18646688759326935, 0.05173126980662346], [0.2184254378080368, -0.07792671024799347, -0.10349082946777344, 0.15633484721183777, -0.012726503424346447, 0.21124722063541412, -0.07335186749696732, -0.12182238698005676, 0.15783937275409698, -0.011707798577845097], [0.1789265125989914, 0.13221324980258942, 0.0838463082909584, 0.03840799257159233, 0.2206944227218628, -0.2558360695838928, -0.29066455364227295, 0.18597565591335297, -0.3029104471206665, 0.0960736870765686], [0.11719148606061935, -0.18386337161064148, 0.1962948739528656, 0.05326465889811516, 0.24838991463184357, 0.06287907809019089, 0.05625344440340996, 0.2529386281967163, 0.0043196901679039, -0.3254488706588745], [-0.2821950614452362, -0.005926401354372501, -0.03439316153526306, -0.16540396213531494, -0.05672164261341095, -0.08964455872774124, -0.07408726215362549, -0.017114941030740738, 0.1996743232011795, 0.3008250892162323], [-0.034005340188741684, 0.19799944758415222, 0.1986348032951355, 0.2836626470088959, -0.30463457107543945, 0.1375218778848648, 0.026950430124998093, -0.29706934094429016, 0.34703806042671204, -0.2739637494087219], [-0.2778709828853607, 0.24114632606506348, 0.40864869952201843, -0.07637925446033478, -0.025428304448723793, -0.19782893359661102, 0.17618660628795624, -0.19220176339149475, -0.1969068944454193, -0.1858493983745575], [-0.19387200474739075, 0.02553505077958107, 0.01845473051071167, -0.18486003577709198, 0.04594035819172859, -0.20812569558620453, 0.13497032225131989, 0.09623317420482635, 0.03277009353041649, -0.14641223847866058], [-0.27168771624565125, -0.28128835558891296, 0.02392677217721939, 0.2338268756866455, 0.1466084122657776, 0.2721203565597534, 0.15664462745189667, 0.24440458416938782, -0.2596147954463959, -0.14953777194023132], [-0.19817093014717102, -0.15247726440429688, 0.030209554359316826, -0.17619580030441284, -0.2087591588497162, -0.1269553303718567, 0.15570151805877686, -0.08433551341295242, 0.21266742050647736, 0.03878868371248245], [-0.24118858575820923, 0.12562717497348785, 0.00202957377769053, 0.19038094580173492, 0.16845539212226868, 0.14202880859375, -0.28947195410728455, 0.1783425509929657, 0.028954818844795227, 0.050922177731990814], [0.2635190784931183, -0.32341375946998596, 0.3695325255393982, 0.17880453169345856, 0.007816360332071781, 0.038536544889211655, 0.19488997757434845, -0.09856300055980682, -0.325069397687912, -0.0015808080788701773], [0.19299589097499847, 0.1386972814798355, 0.14471463859081268, 0.10278905183076859, 0.14637616276741028, 0.2103971242904663, -0.21233808994293213, -0.08557736128568649, -0.0776836946606636, 0.10294067114591599], [0.21217386424541473, -0.2526808977127075, -0.014049756340682507, 0.3215758502483368, -0.22385871410369873, -0.13529448211193085, -0.04480963945388794, 0.14723825454711914, 0.2285027951002121, -0.1434916853904724], [-0.22046270966529846, -0.09006531536579132, -0.06897899508476257, -0.05880897492170334, 0.058518435806035995, 0.015840619802474976, 0.0032495171763002872, -0.11108331382274628, 0.13998888432979584, 0.15624797344207764], [0.020006326958537102, -0.08988162875175476, 0.209612637758255, -0.2399665117263794, 0.04238923266530037, 0.04668733850121498, 0.04348219931125641, 0.15986552834510803, -0.22314400970935822, 0.17929726839065552], [-0.1834327131509781, 0.0018750521121546626, 0.025202317163348198, -0.10878941416740417, -0.16741666197776794, -0.05863242223858833, -0.07554592937231064, 0.21923604607582092, -0.03614113852381706, 0.08217937499284744], [-0.23236674070358276, 0.10502523928880692, 0.10311467200517654, -0.1435478776693344, -0.23867623507976532, 0.2299344837665558, 0.13085108995437622, 0.19914226233959198, 0.16274303197860718, -0.06402891874313354], [-0.06219210848212242, 0.10297144204378128, -0.06519559025764465, -0.2235966920852661, -0.13089287281036377, -0.19109924137592316, 0.02768871933221817, -0.17295494675636292, 0.15767547488212585, 0.2740088403224945], [0.12848468124866486, -0.1547594517469406, -0.09766785055398941, 0.23712597787380219, -0.2062637358903885, 0.13272391259670258, 0.0035064942203462124, 0.028925821185112, -0.18310871720314026, 0.09321492910385132], [0.17270617187023163, -0.06273811310529709, 0.09346434473991394, 0.22409793734550476, -0.14508773386478424, -0.09605330228805542, 0.06482545286417007, -0.17974825203418732, -0.04309456795454025, -0.17698493599891663], [0.27136147022247314, -0.03830745443701744, 0.07161431759595871, -0.2675049304962158, 0.19790862500667572, 0.3274195194244385, -0.17010925710201263, -0.13126473128795624, -0.0818016305565834, -0.19927729666233063], [0.22146695852279663, -0.25432178378105164, -0.1369316428899765, -0.10880254209041595, -0.22507214546203613, 0.14860567450523376, 0.23399794101715088, -0.22455225884914398, 0.19855652749538422, -0.03140132501721382], [-0.10022201389074326, -0.1035698801279068, 0.19616501033306122, -0.17853659391403198, 0.17946778237819672, 0.16613002121448517, 0.10402476042509079, 0.015332847833633423, -0.2654470205307007, 0.036555446684360504], [-0.19108112156391144, -0.05031181126832962, -0.15250907838344574, 0.006003240123391151, 0.002710032742470503, 0.2085670679807663, 0.0359218493103981, -0.015412635169923306, -0.10514649748802185, -0.02703181467950344], [-0.11795995384454727, 0.029502371326088905, -0.24937458336353302, -0.10006367415189743, -0.1297549605369568, 0.021315885707736015, -0.04855963587760925, 0.09967278689146042, 0.043914224952459335, -0.15884949266910553], [-0.045780304819345474, -0.12370672821998596, -0.10497839748859406, -0.16006645560264587, 0.04961567372083664, 0.15101811289787292, 0.19006593525409698, -0.12039599567651749, 0.048004716634750366, 0.18769703805446625], [-0.0025767539627850056, 0.09887244552373886, -0.20120258629322052, 0.07715477049350739, -0.2253897339105606, 0.05468246340751648, 0.2109474390745163, -0.11654086410999298, -0.21245960891246796, 0.19331859052181244], [0.11579737067222595, 0.02268166095018387, 0.15473999083042145, 0.24547778069972992, 0.05723412707448006, -0.16096796095371246, -0.1991599053144455, -0.050096217542886734, 0.14430882036685944, -0.03641006350517273], [0.06782833486795425, -0.15013650059700012, 0.1806294471025467, 0.15531498193740845, 0.12355009466409683, -0.010949604213237762, -0.0761321559548378, -0.11585873365402222, -0.09555456042289734, -0.16660909354686737], [-0.13909786939620972, -0.058205630630254745, -0.2640025317668915, 0.03938454017043114, 0.04378955438733101, 0.06931907683610916, 0.28269705176353455, 0.010321682319045067, -0.03826525807380676, 0.02155160717666149], [-0.1416063904762268, 0.028407469391822815, -0.01770135946571827, 0.1728903204202652, -0.17768873274326324, 0.022558918222784996, 0.09003469347953796, 0.10473150759935379, -0.1829661726951599, -0.02170073427259922], [-0.1210617646574974, 0.1085016131401062, -0.09861806035041809, 0.06298723071813583, -0.04529751464724541, -0.12393888831138611, -0.1943875104188919, -0.13779020309448242, 0.04292125627398491, -0.0555732399225235], [-0.07849446684122086, 0.052441202104091644, 0.22075028717517853, -0.2710210084915161, -0.026819994673132896, -0.2779712975025177, 0.24403616786003113, 0.02371523156762123, 0.2136489748954773, 0.09019072353839874], [0.14684247970581055, 0.22012567520141602, 0.020512275397777557, -0.12996743619441986, -0.16770772635936737, -0.18895980715751648, 0.0021269870921969414, 0.20499585568904877, 0.1363212913274765, -0.27073371410369873], [0.3342314064502716, 0.020955905318260193, -0.05489107593894005, -0.31824183464050293, -0.03065929003059864, -0.02345353551208973, -0.1654215157032013, 0.06454231590032578, -0.09490853548049927, 0.15462690591812134], [-0.1646237075328827, 0.2384500503540039, -0.1804567128419876, 0.25737839937210083, 0.1286460906267166, 0.06052037701010704, 0.21948203444480896, -0.3306396007537842, -0.16596221923828125, 0.17643892765045166], [0.12671948969364166, 0.16551226377487183, -0.22484014928340912, 0.2794142961502075, 0.30607154965400696, -0.31473132967948914, 0.21637386083602905, -0.2424336075782776, -0.14488844573497772, -0.30334821343421936], [-0.23154495656490326, -0.16745708882808685, 0.14809827506542206, 0.15165430307388306, 0.046245329082012177, 0.010171441361308098, 0.05534641444683075, -0.247258722782135, -0.07478129118680954, 0.06596965342760086], [0.0621861033141613, 0.22553251683712006, -0.23815791308879852, 0.12569501996040344, 0.02162233740091324, -0.01332057174295187, -0.20921218395233154, -0.04688666760921478, -0.2854812443256378, 0.21180567145347595], [-0.07131720334291458, 0.12358972430229187, -0.20586489140987396, -0.024502407759428024, 0.11672575026750565, 0.1439291387796402, 0.184565469622612, 0.12007774412631989, 0.12423073500394821, -0.1841709166765213], [-0.2076728790998459, 0.02953171357512474, 0.08388029783964157, -0.24586716294288635, -0.14595560729503632, 0.019926365464925766, 0.25209999084472656, 0.2379016876220703, -0.007619761396199465, 0.09674416482448578], [-0.07839219272136688, 0.13773421943187714, -0.42252641916275024, -0.18218712508678436, -0.03988717496395111, 0.05512592941522598, 0.24514354765415192, 0.14074021577835083, 0.20637007057666779, 0.011460188776254654], [0.028718311339616776, -0.19660592079162598, -0.04909178987145424, -0.19928181171417236, -0.2685229778289795, 0.1258821338415146, 0.2645374834537506, 0.11860218644142151, 0.23735016584396362, -0.13902096450328827], [0.02553483098745346, -0.31409960985183716, 0.06910884380340576, 0.21627125144004822, -0.3071586787700653, -0.19872604310512543, -0.0209431704133749, 0.1456182301044464, 0.15121868252754211, 0.22540022432804108], [0.2103964239358902, -0.10323569923639297, -0.266602098941803, -0.12194235622882843, 0.13006488978862762, 0.03713340312242508, -0.004810952115803957, 0.22291679680347443, -0.06433399021625519, -0.006498145405203104], [0.2656542956829071, -0.1465747207403183, -0.1358843445777893, -0.26972833275794983, 0.3999050557613373, -0.17132721841335297, 0.021918542683124542, -0.1896732896566391, -0.05398891866207123, -0.10410712659358978], [-0.1396050751209259, 0.2381967008113861, -0.3093627393245697, -0.07804792374372482, -0.25821229815483093, -0.1317969560623169, 0.2593654990196228, 0.3432234525680542, -0.2462790161371231, 0.09831126034259796], [0.0055868118070065975, 0.22574904561042786, -0.10618430376052856, -0.17261013388633728, 0.01884922944009304, 0.09298364073038101, 0.04131247475743294, 0.058882538229227066, 0.0553327240049839, 0.018009383231401443], [0.3177758455276489, 0.340028315782547, -0.16436554491519928, -0.14937065541744232, -0.12473341822624207, -0.06431886553764343, -0.20839866995811462, 0.051532234996557236, -0.1643911898136139, -0.23997525870800018], [0.08440836519002914, 0.17844782769680023, 0.1019618809223175, -0.24288438260555267, 0.11533084511756897, 0.1494068205356598, -0.28087499737739563, -0.13261502981185913, 0.11801831424236298, 0.08121389150619507], [0.108658067882061, 0.25695717334747314, -0.29517486691474915, -0.15655338764190674, 0.16256318986415863, 0.2517266273498535, -0.13438856601715088, -0.14549151062965393, -0.165541872382164, 0.07301044464111328], [-0.09561920166015625, 0.0606558732688427, 0.12854887545108795, 0.011987126432359219, 0.22385264933109283, -0.09588563442230225, 0.0012304189149290323, -0.19475065171718597, 0.0546286515891552, 0.03519728407263756], [0.23010820150375366, -0.11562012135982513, 0.14860177040100098, 0.027901845052838326, 0.15120668709278107, 0.13212718069553375, 0.19848206639289856, -0.33539512753486633, -0.16675439476966858, 0.1171366348862648], [-0.05090894177556038, 0.20315802097320557, 0.09300632029771805, 0.11507377028465271, 0.2925594747066498, 0.06950259208679199, -0.16305994987487793, -0.33576667308807373, 0.1931501179933548, -0.05234310403466225], [-0.28583598136901855, -0.022946948185563087, -0.2527047097682953, -0.0018240601057186723, 0.16945891082286835, 0.08683577924966812, 0.15225927531719208, 0.27149274945259094, 0.2261189967393875, -0.17467601597309113], [0.03525537624955177, -0.34442755579948425, 0.3147771656513214, 0.1329873502254486, -0.2451953887939453, -0.04562075063586235, -0.27440503239631653, 0.2162487655878067, 0.08758562803268433, -0.08182875066995621], [0.2734619379043579, -0.36157166957855225, 0.1620037853717804, 0.0792018324136734, -0.06573642790317535, 0.18520303070545197, -0.34709611535072327, 0.2712258994579315, -0.08482050150632858, 0.058810148388147354], [0.23438867926597595, 0.12076743692159653, -0.18485446274280548, 0.028131535276770592, -0.13329949975013733, -0.11849229782819748, -0.023197995498776436, 0.02798474207520485, -0.03668103739619255, -0.16582493484020233], [0.012348405085504055, -0.031880952417850494, -0.091867595911026, -0.12212304770946503, 0.3306735157966614, 0.12832874059677124, -0.07189375162124634, -0.2078976333141327, 0.09735724329948425, -0.08643108606338501], [0.07017368078231812, -0.20003348588943481, 0.014767458662390709, -0.19369105994701385, 0.2315506786108017, -0.18180015683174133, -0.08867423236370087, -0.23671649396419525, 0.1371193826198578, 0.21469978988170624], [-0.04178481549024582, -0.1250808984041214, 0.22922354936599731, 0.15499530732631683, 0.03831006959080696, 0.029302028939127922, -0.26821473240852356, -0.09374931454658508, -0.3027419149875641, 0.07381302863359451], [0.11346323043107986, -0.156844362616539, 0.1898057758808136, 0.041176505386829376, 0.0729941874742508, 0.008147329092025757, 0.021790096536278725, -0.15976768732070923, -0.08703116327524185, -0.21484068036079407], [-0.20645801723003387, -0.06176196038722992, 0.20092041790485382, 0.08191452920436859, -0.22090545296669006, 0.08927903324365616, 0.04505961760878563, 0.1123221218585968, 0.1040920689702034, -0.03820788487792015], [0.13971607387065887, -0.1863061785697937, 0.18784265220165253, 0.04862452298402786, -0.06840123236179352, 0.03213058039546013, 0.18862301111221313, 0.20817521214485168, -0.09934505075216293, -0.1758454442024231], [0.21005593240261078, 0.09418417513370514, 0.07709624618291855, -0.04280173033475876, -0.19181732833385468, 0.019829219207167625, -0.247318297624588, -0.04245037958025932, 0.23477721214294434, 0.13313160836696625], [-0.2171688824892044, 0.18977272510528564, 0.2487635314464569, 0.1396876573562622, 0.0657224953174591, -0.06913844496011734, -0.16360819339752197, -0.12557518482208252, -0.16753947734832764, -0.28234705328941345], [0.06754923611879349, 0.1902133673429489, 0.12746956944465637, 0.1565743237733841, -0.2187594771385193, 0.06393908709287643, -0.24507880210876465, -0.02137286402285099, -0.09601376950740814, 0.22870516777038574], [-0.2740795612335205, 0.21360643208026886, -0.24416694045066833, 0.016281303018331528, -0.11344753950834274, -0.3696492612361908, 0.32213231921195984, 0.26637595891952515, 0.10405543446540833, 0.029590154066681862], [-0.016824686899781227, 0.0704348236322403, -0.11245302855968475, -0.23419485986232758, 0.09031958878040314, -0.12822391092777252, 0.21828848123550415, -0.18705512583255768, 0.132679283618927, -0.06401172280311584], [-0.23189543187618256, -0.14209508895874023, 0.039936065673828125, -0.09654805064201355, -0.08191823214292526, -0.18215367197990417, -0.03762814775109291, 0.12631332874298096, -0.005107405595481396, 0.2531169354915619], [0.2039727121591568, 0.14368987083435059, -0.13368462026119232, -0.2791833281517029, -0.16333597898483276, 0.20501087605953217, 0.051432348787784576, 0.1331533044576645, 0.14404362440109253, -0.18054738640785217], [-0.10515206307172775, 0.07273741066455841, -0.05717889219522476, -0.18261654675006866, 0.09151966124773026, -0.11622384190559387, 0.17928209900856018, -0.10642097890377045, 0.08847232908010483, 0.14445838332176208], [0.3078596889972687, -0.08313387632369995, -0.3477154076099396, 0.09793839603662491, 0.1944766789674759, -0.32016876339912415, 0.10307237505912781, 0.26854291558265686, 0.009234643541276455, -0.027344390749931335], [-0.10329736024141312, -0.02623402141034603, 0.2160026878118515, 0.24898351728916168, 0.2916969358921051, 0.08510587364435196, 0.003475520294159651, -0.24225367605686188, -0.15619537234306335, -0.07649675011634827], [-0.013969494961202145, 0.10621099919080734, 0.171113982796669, -0.10719823837280273, -0.3197568953037262, -0.12000463157892227, 0.000657333992421627, -0.0853428840637207, 0.08700849860906601, 0.12546080350875854], [0.07940448820590973, -0.034655094146728516, 0.2914482057094574, -0.15753641724586487, 0.07359658926725388, 0.018137402832508087, -0.04913721978664398, -0.1457231342792511, 0.012438671663403511, -0.19239862263202667], [-0.09465587139129639, -0.030246665701270103, 0.07078427076339722, 0.09179215878248215, 0.23404067754745483, -0.029545627534389496, -0.18433526158332825, 0.0968586802482605, 0.0629267767071724, 0.1506817787885666], [0.004175984300673008, -0.07483307272195816, -0.1152215451002121, -0.06422831863164902, 0.06287852674722672, 0.16517256200313568, 0.16909705102443695, -0.14240925014019012, -0.15210779011249542, -0.19080491364002228], [-0.1948324292898178, 0.25795453786849976, -0.10187628865242004, 0.0800788626074791, 0.24964375793933868, -0.014488290064036846, -0.24639452993869781, -0.07203712314367294, -0.11575943231582642, 0.19623129069805145], [-0.19618616998195648, 0.03359736502170563, 0.12149076908826828, -0.06690926849842072, 0.3147907555103302, 0.02397475391626358, -0.20691314339637756, -0.09763136506080627, 0.030336087569594383, -0.24158412218093872], [0.27184003591537476, 0.07752934098243713, -0.3712669610977173, 0.1447957456111908, -0.08123230189085007, -0.28839054703712463, -0.12258859723806381, 0.17541304230690002, 0.2663760483264923, 0.17686256766319275], [-0.1941196322441101, 0.0727054700255394, -0.01632048189640045, -0.14926226437091827, -0.14932729303836823, 0.15378423035144806, 0.16732700169086456, -0.20026248693466187, 0.009866321459412575, 0.08662226796150208], [-0.021907342597842216, -0.06179884821176529, -0.15950849652290344, -0.15202073752880096, 0.2399343103170395, -0.16112783551216125, 0.07746392488479614, 0.08871657401323318, 0.06564155220985413, 0.011847284622490406], [0.06656312942504883, -0.17185693979263306, 0.0884716808795929, -0.21562376618385315, 0.14707565307617188, -0.08808059990406036, -0.18471567332744598, -0.09486711025238037, -0.0426722913980484, 0.27970293164253235], [-0.25646620988845825, -0.1908109188079834, -0.0748356431722641, 0.10849029570817947, 0.26041653752326965, 0.02825946733355522, -0.07496220618486404, 0.08955397456884384, -0.1088598221540451, 0.15779125690460205], [-0.013514924794435501, 0.03796390816569328, 0.16084922850131989, 0.18788832426071167, 0.16123737394809723, 0.1792764812707901, -0.19317132234573364, 0.1899285912513733, 0.15999330580234528, -0.19221578538417816], [0.034206949174404144, -0.3244292736053467, -0.07081597298383713, 0.12512533366680145, 0.19317443668842316, 0.17838436365127563, -0.04953038692474365, -0.2930415868759155, -0.23249243199825287, 0.33494845032691956], [0.18514536321163177, 0.16900916397571564, 0.33427393436431885, 0.12341386079788208, 0.1288193166255951, -0.2653995752334595, 0.040343157947063446, -0.263509064912796, -0.22307169437408447, -0.07323971390724182], [-0.12389244139194489, 0.04879743978381157, 0.00973384641110897, 0.16379614174365997, 0.1975385546684265, 0.15823113918304443, 0.05418272316455841, -0.11089089512825012, -0.03456031531095505, 0.03817319497466087], [-0.13125935196876526, -0.2222648411989212, 0.011675571091473103, 0.2662809491157532, -0.11151815950870514, 0.2231752872467041, 0.058358583599328995, -0.22787469625473022, -0.15466494858264923, 0.006076231598854065], [-0.23577848076820374, 0.010706290602684021, -0.06625083088874817, -0.22717569768428802, 0.3451022505760193, 0.11352818459272385, 0.15081237256526947, -0.03696731477975845, -0.1586436778306961, -0.09443649649620056], [0.2762477695941925, -0.23286569118499756, -0.25627851486206055, -0.11264929175376892, -0.09392108768224716, 0.23866483569145203, 0.23953218758106232, -0.31743481755256653, 0.32182273268699646, -0.04668322578072548], [0.0052491179667413235, -0.3416427671909332, 0.01785440184175968, -0.319444477558136, 0.2744547724723816, 0.18919171392917633, 0.12896932661533356, 0.25682440400123596, -0.3121717870235443, 0.17486533522605896], [-0.03126296401023865, -0.19838467240333557, 0.010025794617831707, -0.04499540850520134, -0.20027385652065277, -0.1111292913556099, 0.1128915399312973, 0.3189118802547455, -0.004555968102067709, -0.0960676446557045], [0.0730687752366066, -0.2696390450000763, -0.07348484545946121, -0.13404791057109833, -0.07731977105140686, -0.15133775770664215, 0.07732675224542618, -0.11629991978406906, 0.20890912413597107, 0.31770166754722595], [0.20970085263252258, -0.1767253428697586, 0.025379786267876625, -0.059419095516204834, 0.08383303135633469, 0.06750041246414185, -0.10202182084321976, -0.08946415036916733, 0.10696859657764435, 0.10729371756315231], [0.29413196444511414, -0.0888514593243599, -0.1318724900484085, 0.13677433133125305, 0.1883794665336609, -0.3210122287273407, -0.20696677267551422, 0.10225923359394073, 0.23399290442466736, -0.009069422259926796], [-0.13685768842697144, -0.08554913848638535, 0.01753067597746849, -0.12741611897945404, 0.07793048769235611, 0.3531598746776581, -0.11776801198720932, 0.13262350857257843, -0.19014957547187805, -0.14075450599193573], [-0.00745384069159627, 0.1703154742717743, 0.13683705031871796, -0.0091457050293684, -0.06545816361904144, -0.2755110561847687, 0.03688911348581314, -0.0032304085325449705, -0.0008354351157322526, 0.04216010868549347], [0.040370356291532516, 0.14587336778640747, 0.2068198174238205, -0.015695510432124138, 0.20905572175979614, 0.21239782869815826, 0.0047445534728467464, -0.09863344579935074, 0.2155042439699173, -0.3597942888736725], [0.0004306273767724633, -0.03572208061814308, -0.11155842244625092, -0.13448645174503326, 0.1858726143836975, -0.15316899120807648, -0.09093843400478363, -0.03168816491961479, 0.18943609297275543, 0.1237543374300003], [0.014383352361619473, 0.0356077216565609, 0.16541798412799835, -0.09823496639728546, 0.09083990007638931, -0.25181692838668823, 0.16698287427425385, 0.0069442554377019405, 0.023536663502454758, 0.17810820043087006], [-0.3155493140220642, -0.04957948625087738, -0.12486104667186737, -0.06755050271749496, -0.11975400149822235, 0.3024871051311493, -0.1841817945241928, -0.3467787206172943, 0.29224443435668945, 0.3451598882675171], [0.25008442997932434, 0.1849401593208313, -0.21072562038898468, -0.24387718737125397, 0.1339738816022873, 0.04512884467840195, 0.18439345061779022, -0.2668289542198181, 0.10472717136144638, -0.1859682947397232], [-0.2686730921268463, 0.3009147047996521, 0.2871183753013611, -0.22148433327674866, -0.0575421079993248, -0.31351175904273987, 0.1355784833431244, 0.0200008824467659, -0.2253522425889969, 0.19337423145771027], [-0.2622201442718506, 0.17826522886753082, 0.006393788382411003, 0.19067992269992828, 0.1733066290616989, 0.08058183640241623, -0.1871977001428604, 0.18475432693958282, -0.08546134829521179, 0.15290671586990356], [0.04949873685836792, -5.528164183488116e-05, -0.05623282864689827, 0.06397382915019989, 0.02554805763065815, 0.04574752599000931, 0.04487256333231926, -0.13734599947929382, -0.2254277616739273, 0.1251719444990158], [0.0629839226603508, 0.0663713663816452, 0.21394897997379303, -0.10880973935127258, 0.008824625983834267, 0.10035683214664459, -0.1925334930419922, 0.1697305142879486, 0.20069517195224762, 0.16992425918579102], [-0.12722425162792206, 0.20926804840564728, 0.03608744218945503, -0.15300463140010834, -0.06769737601280212, -0.10456645488739014, 0.019917389377951622, 0.09134417027235031, -0.17852826416492462, -0.19450978934764862], [0.22745542228221893, 0.14114424586296082, 0.048058219254016876, 0.14595948159694672, 0.0584617555141449, -0.027487164363265038, -0.22499781847000122, 0.19326741993427277, -0.10190168768167496, -0.31174367666244507], [-0.18190287053585052, -0.02824447490274906, -0.21594955027103424, 0.3270368278026581, 0.11316788196563721, -0.04553587734699249, -0.19025807082653046, 0.0891866683959961, -0.09916806221008301, -0.18945357203483582], [0.06654524803161621, -0.026002438738942146, 0.22193960845470428, 0.0574309267103672, 0.14471463859081268, -0.0354926660656929, 0.2646345794200897, -0.33558520674705505, -0.22971203923225403, 0.24022167921066284], [0.06917017698287964, -0.25587695837020874, -0.28786587715148926, 0.16903620958328247, 0.10573986917734146, -0.06223687157034874, 0.14121846854686737, 0.15468519926071167, 0.14470745623111725, 0.22282199561595917], [0.0709407776594162, 0.2869058847427368, -0.15900762379169464, -0.309576153755188, 0.1907985806465149, 0.04131940379738808, -0.24356825649738312, 0.24161918461322784, -0.10766804963350296, 0.2742590606212616], [-0.24853241443634033, -0.11502427607774734, -0.08537301421165466, -0.11050910502672195, 0.2324143797159195, 0.01432008482515812, 0.06615851074457169, 0.09040731191635132, -0.10394023358821869, 0.028446629643440247], [0.12578436732292175, 0.047423429787158966, 0.15428565442562103, -0.20970691740512848, 0.16583193838596344, 0.12814144790172577, -0.2420291304588318, -0.023700451478362083, 0.12425480037927628, 0.06842777878046036], [0.20331723988056183, 0.05851399526000023, 0.12840427458286285, 0.20368066430091858, -0.2880057990550995, 0.16504225134849548, -0.19340431690216064, -0.021855181083083153, 0.1780404895544052, 0.19375227391719818], [0.09297157824039459, 0.17634683847427368, 0.013884231448173523, -0.25316083431243896, -0.1292736679315567, -0.02899758890271187, -0.03490772098302841, 0.024909241124987602, -0.15380018949508667, 0.04697548598051071], [-0.08359332382678986, -0.0893860012292862, 0.19204819202423096, -0.06623250246047974, -0.06232800334692001, 0.1941416710615158, 0.0978771522641182, 0.037953853607177734, 0.10823705047369003, -0.02431599050760269], [-0.20259903371334076, -0.18069365620613098, -0.29946574568748474, 0.27483221888542175, 0.21155858039855957, -0.13765420019626617, -0.03859669715166092, 0.0532938688993454, 0.33848950266838074, -0.21038241684436798], [-0.09329315274953842, -0.0861014798283577, -0.2972409427165985, -0.11506295949220657, -0.13535918295383453, 0.0805366188287735, 0.0958540067076683, -0.11398375034332275, 0.18014708161354065, 0.16170166432857513], [-0.202264204621315, 0.19124454259872437, 0.18775556981563568, -0.11145421117544174, -0.004624105989933014, -0.1309427171945572, 0.24045896530151367, 0.08501357585191727, -0.21164269745349884, -0.05420393496751785], [-0.262008935213089, -0.12173677980899811, -0.1690312623977661, 0.051680661737918854, -0.02079806663095951, 0.21055608987808228, 0.04433757811784744, -0.004664518404752016, 0.12099135667085648, -0.04010497033596039], [-0.2222360223531723, -0.1864718645811081, 0.015497024171054363, 0.1935901939868927, 0.0074683548882603645, -0.2761918008327484, -0.2182093858718872, 0.16451342403888702, -0.13410823047161102, 0.21103283762931824], [0.13464222848415375, 0.040807388722896576, -0.13534706830978394, 0.11660842597484589, 0.14946433901786804, -0.12648427486419678, 0.00451138848438859, 0.15763354301452637, -0.003916399087756872, -0.007239293307065964], [-0.032563403248786926, -0.11737930774688721, -0.2355874478816986, 0.2618921101093292, -0.03156131133437157, 0.058738503605127335, -0.19590947031974792, -0.0032077438663691282, 0.06357468664646149, 0.1689051389694214], [-0.045554280281066895, -0.24352632462978363, -0.12145018577575684, 0.2924651503562927, -0.06555645912885666, -0.05545826628804207, -0.155831441283226, 0.07809741050004959, 0.011555396020412445, 0.25193268060684204], [0.19827863574028015, 0.01875593513250351, 0.22809049487113953, -0.1112736314535141, -0.1553790420293808, -0.26413601636886597, -0.13428503274917603, 0.11080813407897949, -0.041912999004125595, -0.1309059113264084], [0.16116751730442047, -0.22260545194149017, -0.1526222974061966, 0.18867669999599457, 0.16429822146892548, -0.12603186070919037, 0.21179968118667603, -0.21668702363967896, -0.11347707360982895, -0.1472993791103363], [0.01810099557042122, 0.23352216184139252, -0.13406060636043549, -0.06834380328655243, 0.1464976966381073, -0.12531614303588867, 0.003769306233152747, 0.03475284203886986, -0.007372491527348757, -0.17289461195468903], [0.1259964257478714, 0.20400302112102509, -0.2927713096141815, -0.23554763197898865, 0.10182105004787445, -0.024517441168427467, 0.0719277635216713, 0.16574148833751678, 0.08571131527423859, -0.14257025718688965], [0.03460780903697014, -0.2862779200077057, 0.09846898913383484, 0.16778059303760529, -0.08954235166311264, -0.1942993402481079, 0.061024345457553864, 0.2685419023036957, -0.19066566228866577, 0.12284429371356964], [0.2546805739402771, -0.06878379732370377, -0.021420540288090706, -0.1710892766714096, -0.23171338438987732, -0.03053681179881096, 0.18949013948440552, 0.01125475112348795, -0.03942883014678955, -0.09748507291078568], [0.04684080556035042, 0.03709932789206505, -0.2333880066871643, 0.20281977951526642, 0.0284426286816597, 0.13648486137390137, -0.1387837827205658, 0.06775850057601929, -0.061221133917570114, -0.047903601080179214], [-0.02892298251390457, -0.1948080062866211, 0.10000384598970413, 0.20160876214504242, 0.14894932508468628, -0.08346454799175262, -0.026192383840680122, -0.1924903243780136, 0.1151699498295784, -0.09549536556005478], [0.042569126933813095, -0.18976882100105286, 0.008093470707535744, -0.016958186402916908, 0.03661432862281799, 0.20544035732746124, 0.0757623240351677, 0.03288469463586807, -0.16703549027442932, -0.17601922154426575], [-0.18124257028102875, -0.07503636926412582, 0.208297461271286, -0.14707307517528534, 0.022218432277441025, 0.2801186144351959, 0.16372646391391754, -0.053977638483047485, -0.05816387012600899, -0.23147845268249512], [0.18764229118824005, -0.07430243492126465, 0.07811165601015091, -0.04353858157992363, -0.19834724068641663, 0.2643875479698181, 0.19148525595664978, 0.28535252809524536, -0.1673329621553421, -0.2546404004096985], [0.27490198612213135, -0.2621464729309082, 0.2963487207889557, 0.29254773259162903, -0.12900659441947937, -0.19375497102737427, 0.13747729361057281, -0.11364024132490158, -0.27263373136520386, 0.22596415877342224], [-0.03610234335064888, 0.28402721881866455, 0.19804829359054565, -0.1546078324317932, -0.03423942252993584, -0.11194279044866562, -0.10051567852497101, -0.2290142923593521, 0.012186825275421143, -0.039125021547079086], [-0.19484156370162964, 0.1718546450138092, 0.31664925813674927, 0.12353727966547012, -0.24224981665611267, -0.0014787673717364669, -0.052682649344205856, 0.005247326102107763, 0.08238643407821655, -0.18549728393554688], [0.10211535543203354, -0.2524181008338928, 0.2944145202636719, -0.23375919461250305, 0.0629996731877327, 0.18841205537319183, 0.1732112318277359, 0.13021370768547058, -0.2824017405509949, -0.23865379393100739], [0.061107464134693146, 0.011528152972459793, 0.15949702262878418, 0.10371475666761398, 0.13265293836593628, -0.1990753412246704, 0.21036982536315918, -0.058560241013765335, 0.16633261740207672, -0.11422886699438095], [-0.013350777328014374, 0.18450500071048737, 0.21676748991012573, -0.30238717794418335, 0.24339838325977325, 0.19828371703624725, -0.14862710237503052, 0.1747906655073166, -0.04791637137532234, -0.3009503185749054], [0.2329482138156891, 0.347083181142807, -0.2653619647026062, -0.10323268920183182, -0.24246861040592194, -0.03895038738846779, -0.011339208111166954, -0.26481854915618896, 0.24120008945465088, -0.041277915239334106], [-0.07389261573553085, 0.26979997754096985, -0.16288189589977264, 0.14399953186511993, -0.00041948791476897895, -0.012833942659199238, 0.14471007883548737, 0.07390405237674713, -0.11434101313352585, -0.19348964095115662], [-0.03763214871287346, -0.1844531148672104, -0.2069740742444992, -0.17988719046115875, -0.008668865077197552, 0.20739442110061646, 0.2596732974052429, -0.10934779047966003, -0.15647152066230774, -0.03731584548950195], [-0.15565788745880127, -0.14913301169872284, 0.01615695096552372, 0.15901856124401093, 0.1367630660533905, 0.1772829294204712, -0.25780344009399414, -0.1987748146057129, 0.30271169543266296, -0.11039204150438309], [-0.2805587351322174, 0.12429318577051163, 0.000741361640393734, 0.04192773625254631, 0.2590629458427429, 0.20541024208068848, -0.21952226758003235, -0.18607990443706512, -0.23302824795246124, 0.11865131556987762], [0.18301838636398315, 0.13157129287719727, -0.22499915957450867, 0.15938697755336761, -0.023872120305895805, -0.019935932010412216, -0.2072915881872177, 0.11941054463386536, -0.2390301674604416, 0.2614137530326843], [0.23574760556221008, -0.034586332738399506, -0.09667684137821198, 0.2302885502576828, -0.0326688289642334, -0.03928127884864807, 0.21215766668319702, 0.26780861616134644, -0.2221386879682541, -0.25605684518814087], [-0.21106578409671783, 0.1807989627122879, 0.09629908204078674, 0.07273472845554352, -0.18135064840316772, -0.09043616056442261, 0.1638212949037552, -0.03745247423648834, -0.21532203257083893, 0.24027207493782043], [0.07278513163328171, -0.06752082705497742, 0.08827967941761017, 0.1175251305103302, 0.14504511654376984, -0.35722434520721436, 0.2676135301589966, 0.10422976315021515, 0.19305871427059174, -0.16067171096801758], [-0.11717340350151062, 0.1528072953224182, 0.13303300738334656, -0.13803958892822266, -0.04911895468831062, -0.24260076880455017, 0.019281163811683655, -0.14829589426517487, 0.13067840039730072, -0.011977272108197212], [-0.09387818723917007, -0.1374175101518631, 0.009437767788767815, 0.18993574380874634, -0.24711760878562927, 0.06219350919127464, -0.08485604077577591, 0.10458840429782867, -0.17356902360916138, 0.12164822220802307], [-0.1993699073791504, -0.26813092827796936, 0.12848548591136932, 0.11707376688718796, 0.18892168998718262, -0.2688179016113281, 0.18435442447662354, 0.007999570108950138, 0.10024320334196091, 0.2102421224117279], [0.3421868681907654, 0.046372443437576294, -0.07058855146169662, -0.09408058971166611, -0.18994073569774628, -0.17187173664569855, 0.2086346596479416, -0.11745491623878479, -0.10122653096914291, -0.0011568740010261536], [-0.11993955075740814, -0.08863041549921036, 0.2980220913887024, -0.22752432525157928, -0.06050918251276016, -0.2016838937997818, -0.18493638932704926, 0.34896326065063477, -0.11689181625843048, 0.03252151235938072], [0.0992826297879219, 0.09608252346515656, -0.015495659783482552, 0.16548480093479156, -0.10610925406217575, 0.05047553777694702, 0.022082936018705368, 0.20861642062664032, -0.12212781608104706, -0.05406505614519119], [0.16687147319316864, -0.207625150680542, -0.006150058936327696, -0.1064508706331253, 0.1473519653081894, 0.09251255542039871, 0.08493441343307495, 0.20824556052684784, 0.20681415498256683, -0.028194043785333633], [-0.10100433975458145, 0.21143972873687744, 0.10091014951467514, 0.24751637876033783, -0.09132815152406693, 0.11691910773515701, -0.20958106219768524, 0.09136781841516495, -0.24120256304740906, -0.15668506920337677], [0.02214655466377735, -0.20353496074676514, -0.22154489159584045, -0.058110445737838745, 0.304683655500412, 0.10242907702922821, 0.3156280219554901, -0.06365366280078888, -0.15707379579544067, -0.00022126529074739665], [-0.020565351471304893, -0.09572441875934601, -0.12428034842014313, -0.255150705575943, -0.20734402537345886, 0.3601502776145935, 0.22321344912052155, -0.14743368327617645, -0.16280655562877655, -0.021422171965241432], [-0.23359182476997375, 0.13640516996383667, -0.08077666908502579, -0.015233904123306274, -0.05918961390852928, 0.1257096827030182, 0.0018432283541187644, -0.14532403647899628, 0.218794584274292, 0.1753590852022171], [0.17203935980796814, 0.2780016362667084, -0.2131509929895401, -0.2794519364833832, 0.22944852709770203, 0.14682789146900177, 0.2877655625343323, -0.32584020495414734, 0.0072533017955720425, -0.03913589194417], [-0.07724444568157196, -0.0626285970211029, -0.07148098200559616, 0.09394725412130356, 0.32901448011398315, -0.18679560720920563, 0.12827081978321075, 0.10817477107048035, -0.1447923481464386, -0.1514987349510193], [-0.07224129140377045, -0.151686891913414, -0.08732682466506958, 0.2887600362300873, -0.2560383379459381, -0.1498427540063858, -0.2216949313879013, -0.10731109976768494, 0.20518901944160461, 0.20155993103981018], [-0.08608651906251907, -0.14203599095344543, -0.15527386963367462, 0.048192813992500305, 0.03814409300684929, -0.24289296567440033, 0.2710174024105072, -0.011925172992050648, 0.14952339231967926, -0.0119866281747818], [-0.046657223254442215, -0.30753520131111145, 0.1944357454776764, 0.08624131232500076, 0.35926538705825806, -0.05215754359960556, -0.05383920297026634, -0.11762306094169617, 0.22579985857009888, -0.31954172253608704], [0.2261512279510498, -0.049679987132549286, -0.1066013053059578, -0.23259200155735016, -0.13199731707572937, -0.048276666551828384, 0.12654145061969757, -0.2189224362373352, 0.12520059943199158, 0.005582330748438835], [-0.20737887918949127, 0.22487255930900574, 0.12830980122089386, 0.028389351442456245, -0.10322574526071548, 0.20174230635166168, 0.05182499811053276, 0.01703205145895481, 0.06368889659643173, -0.1289314180612564], [-0.11801846325397491, 0.10763108730316162, 0.0015944113256409764, -0.02105664648115635, 0.11743904650211334, -0.13106419146060944, 0.01113180723041296, -0.2399178147315979, -0.1979852169752121, -0.07708489894866943], [-0.009717507287859917, -0.17279081046581268, -0.030872326344251633, 0.17246998846530914, -0.08335435390472412, -0.1937657743692398, -0.03660726547241211, 0.020503859966993332, -0.15472202003002167, 0.25151193141937256], [-0.3079097270965576, -0.008547866716980934, 0.04976774379611015, 0.14921078085899353, -0.12426774203777313, 0.013104336336255074, 0.28264495730400085, -0.18343153595924377, -0.04812847077846527, 0.21079786121845245], [0.08234315365552902, -0.20863640308380127, -0.2818412482738495, 0.1582934409379959, 0.022569866850972176, 0.1707405298948288, -0.11511114984750748, -0.00032126522273756564, 0.031634315848350525, 0.1376039683818817], [-0.21631018817424774, -0.07822080701589584, 0.06269882619380951, 0.1290774792432785, 0.05620463564991951, -0.011614504270255566, -0.16401483118534088, -0.035851236432790756, 0.24960309267044067, -0.21740923821926117], [0.1296301931142807, -0.017765941098332405, -0.03920698165893555, 0.11634182929992676, 0.13321273028850555, 0.13399365544319153, -0.2678494453430176, -0.15795676410198212, 0.11600003391504288, 0.08064067363739014], [-0.348153293132782, -0.2527404725551605, 0.0635785385966301, -0.01017021294683218, 0.13370594382286072, -0.2583772838115692, 0.30530139803886414, 0.15994766354560852, 0.16228610277175903, -0.20770752429962158], [0.20701558887958527, -0.22814568877220154, -0.2001245617866516, 0.3130916953086853, -0.13589952886104584, 0.1562032699584961, -0.13929887115955353, 0.11278704553842545, -0.02437526546418667, -0.2564968168735504], [-0.2530054748058319, 0.17980436980724335, 0.18252359330654144, -0.10844915360212326, -0.013750850223004818, -0.2020493447780609, 0.11134781688451767, -0.05434508994221687, 0.2305109202861786, -0.13160116970539093], [0.23942509293556213, 0.25211435556411743, 0.21913619339466095, -0.3199782371520996, 0.07440067827701569, -0.24783983826637268, -0.2897579073905945, 0.17367418110370636, 0.0015741524985060096, 0.09393969923257828], [-0.3506864905357361, -0.1301497519016266, 0.3007306158542633, 0.28084734082221985, -0.1441756635904312, -0.04773043841123581, -0.0766979530453682, 0.19942833483219147, 0.20343054831027985, -0.2704073488712311], [0.2630296051502228, -0.09119449555873871, 0.1577443778514862, -0.08455027639865875, -0.058840639889240265, -0.1286771595478058, 0.10537716746330261, -0.020357422530651093, -0.02052070014178753, 0.12991207838058472], [0.19760935008525848, -0.17447936534881592, 0.32155218720436096, 0.13031800091266632, 0.17258182168006897, -0.25172582268714905, -0.19848482310771942, 0.08696854114532471, -0.24361757934093475, 0.1196776032447815], [-0.28695353865623474, 0.14898377656936646, 0.12927410006523132, 0.1887790858745575, -0.22367136180400848, -0.167752206325531, 0.16044797003269196, -0.026729144155979156, 0.3043321967124939, -0.25678154826164246], [0.03339844569563866, -0.10815802216529846, 0.0008456764044240117, -0.16010183095932007, 0.38682785630226135, -0.18125753104686737, -0.1448035091161728, -0.08844003081321716, -0.03980788215994835, -0.15713642537593842], [-0.06967300921678543, -0.1475592404603958, 0.06399397552013397, 0.07969094812870026, -0.19577765464782715, -0.1631915420293808, -0.02403596043586731, 0.03729568421840668, 0.045850664377212524, -0.11254967749118805], [-0.10110756009817123, -0.1207675188779831, 0.16436034440994263, -0.03337718918919563, -0.3206441104412079, 0.22575289011001587, 0.04689998924732208, -0.17701208591461182, 0.046419501304626465, 0.1484363079071045], [-0.1948631852865219, -0.22902551293373108, 0.02342955209314823, 0.347173810005188, -0.21418412029743195, -0.009302552789449692, 0.05499456822872162, -0.2387198954820633, 0.3273566663265228, -0.19774186611175537], [-0.11452486366033554, 0.11566430330276489, -0.27741408348083496, 0.097228042781353, 0.16643750667572021, -0.04686856269836426, -0.1753212958574295, 0.0934966653585434, -0.18287403881549835, 0.11799298971891403], [0.20855240523815155, -0.01936364732682705, -0.009226265363395214, 0.08155455440282822, 0.09945666790008545, 0.03469247370958328, -0.012392707169055939, 0.09133380651473999, -0.17541839182376862, -0.14831899106502533], [0.04725039750337601, -0.270041286945343, 0.16337239742279053, 0.05506423860788345, 0.023254314437508583, 0.0015636461321264505, -0.04065457731485367, -0.2594016194343567, 0.0640515461564064, 0.10440795123577118], [-0.14188340306282043, -0.018231607973575592, -0.09745363146066666, 0.2603733539581299, -0.2332318276166916, 0.11208543181419373, -0.23273150622844696, 0.1861438751220703, -0.1380051076412201, 0.266594797372818], [0.2276991456747055, -0.12009543180465698, -0.2051679641008377, 0.05851583182811737, 0.18036089837551117, -0.17478005588054657, 0.06870343536138535, 0.047121964395046234, -0.17589130997657776, 0.08910336345434189], [-0.04874131456017494, -0.0747901126742363, 0.16073018312454224, 0.043202463537454605, 0.1358775794506073, -0.2422429621219635, -0.18465366959571838, 0.05266067385673523, 0.30045634508132935, -0.17039595544338226], [-0.16887567937374115, 0.19161726534366608, 0.023029042407870293, 0.18149107694625854, -0.2623752951622009, 0.23880556225776672, 0.2464340329170227, -0.1688036024570465, -0.09787342697381973, -0.10744819790124893], [0.15797463059425354, -0.08621850609779358, 0.19337432086467743, -0.10480557382106781, 0.03672490268945694, -0.11514997482299805, -0.0639929473400116, 0.03143463656306267, 0.09881210327148438, -0.12436330318450928], [-0.10149554908275604, -0.041578784584999084, -0.2747621536254883, 0.27540281414985657, 0.06965392827987671, -0.20746135711669922, -0.004728290718048811, -0.16744939982891083, -0.25230303406715393, 0.23159563541412354], [0.04394977539777756, -0.0631096288561821, 0.08510065078735352, -0.15336371958255768, 0.18519391119480133, 0.13521040976047516, 0.11119605600833893, -0.11104720085859299, 0.006874386221170425, 0.023316489532589912], [0.3241303861141205, -0.2609795331954956, -0.09491254389286041, 0.04085953161120415, -0.18291495740413666, 0.2554600238800049, 0.27039527893066406, -0.3271426856517792, 0.15878157317638397, -0.23282037675380707], [-0.10110773146152496, 0.18667255342006683, -0.02490529604256153, -0.26326286792755127, 0.16801601648330688, -0.2353188395500183, -0.2453182190656662, 0.2210579216480255, 0.22614148259162903, 0.11772162467241287], [-0.2729150950908661, -0.03265605866909027, -0.03204338252544403, -0.14267589151859283, 0.2185308337211609, 0.21057875454425812, -0.03863898292183876, 0.08517269045114517, -0.002711590612307191, 0.03044046275317669], [-0.07134170830249786, 0.3333510756492615, -0.1898215115070343, 0.2587086856365204, -0.034150101244449615, 0.11108125001192093, -0.16132034361362457, -0.16111581027507782, -0.12739728391170502, -0.06877719610929489], [-0.1238119900226593, -0.31078600883483887, -0.07732193917036057, -0.07599081844091415, 0.09721274673938751, 0.2617342174053192, -0.16333173215389252, -0.1878201812505722, 0.03972340375185013, 0.2972719073295593], [-0.1497444361448288, -0.028865501284599304, -0.14178955554962158, 0.23532909154891968, -0.2834691107273102, 0.19915826618671417, 0.24738828837871552, 0.0017732366686686873, -0.20982587337493896, -0.07673371583223343], [0.22771771252155304, 0.01979125291109085, -0.039805229753255844, -0.027944935485720634, 0.006259035784751177, 0.2033577859401703, -0.08338182419538498, 0.19308410584926605, 0.024880532175302505, -0.1905142068862915], [-0.08674119412899017, -0.09423605352640152, -0.14996787905693054, -0.19896286725997925, -0.15926210582256317, -0.08218134194612503, 0.2229245901107788, -0.028484560549259186, 0.005495985504239798, -0.0267074815928936], [0.14818736910820007, -0.01666780561208725, 0.06749913096427917, -0.12895110249519348, -0.2329082190990448, 0.20080123841762543, 0.02321154624223709, 0.04851199686527252, -0.2475055605173111, 0.17296308279037476], [-0.27464523911476135, 0.19802148640155792, 0.06435411423444748, 0.15355601906776428, 0.16759811341762543, 0.053294505923986435, 0.1407066136598587, 0.12671883404254913, 0.18633794784545898, -0.3538665771484375], [0.30939918756484985, -0.16242732107639313, 0.09833134710788727, -0.26621749997138977, 0.0718657523393631, -0.30564507842063904, -0.2209644913673401, 0.017313793301582336, 0.16165465116500854, 0.2098352611064911], [0.262338250875473, 0.2938638925552368, -0.2657756209373474, 0.22575639188289642, 0.00017582945292815566, 0.17622226476669312, 0.005614608526229858, -0.29574257135391235, -0.3043857216835022, -0.009979620575904846], [-0.1649356335401535, -0.32112184166908264, 0.09260613471269608, 0.05951710045337677, -0.32383963465690613, 0.117469422519207, -0.005550567526370287, 0.07482527196407318, 0.06484746932983398, 0.33707699179649353], [0.22680401802062988, -0.18069316446781158, 0.09776007384061813, -0.0249186884611845, -0.0787033885717392, 0.22002042829990387, -0.014306246303021908, -0.19227947294712067, -0.04742111638188362, 0.2504989206790924], [0.15026728808879852, -0.15064260363578796, -0.2227356880903244, -0.11634080111980438, -0.08629795908927917, -0.21995677053928375, 0.10263527184724808, 0.248443603515625, 0.20752203464508057, -0.13384661078453064], [-0.042644500732421875, -0.10394060611724854, -0.10127900540828705, 0.07643136382102966, -0.11654169112443924, 0.0296789538115263, -0.09799281507730484, -0.16920030117034912, 0.3074744641780853, -0.09004651010036469], [0.1090533658862114, 0.10019981861114502, 0.1599830687046051, -0.04078187048435211, 0.02487785741686821, -0.11877913028001785, -0.10902708768844604, 0.14697644114494324, 0.13177773356437683, 0.08507467061281204], [0.1966654509305954, 0.21290595829486847, 0.0022573417518287897, 0.12990576028823853, -0.24371172487735748, -0.08546970039606094, -0.1012326031923294, -0.005400876980274916, -0.12005654722452164, -0.16616228222846985], [-0.1723271757364273, 0.07628858834505081, -0.09983661025762558, -0.03448832407593727, -0.19842274487018585, 0.10914565622806549, 0.0048408848233520985, 0.006915649399161339, 0.03557475283741951, -0.21400341391563416], [-0.22304238379001617, -0.3359711170196533, 0.009306314401328564, -0.14762674272060394, 0.16178208589553833, 0.17956367135047913, 0.19527363777160645, -0.0265944991260767, 0.04812009632587433, 0.2563091516494751], [0.16393230855464935, -0.11084601283073425, -0.07782160490751266, 0.3518877327442169, 0.016871757805347443, -0.12495637685060501, 0.27344512939453125, -0.2567661702632904, -0.2369629144668579, -0.12548647820949554], [-0.20880047976970673, 0.27023524045944214, -0.17993256449699402, 0.15803660452365875, 0.2934166491031647, -0.17368845641613007, 0.11839129030704498, -0.17587149143218994, -0.10419578850269318, 0.007974553853273392], [-0.013476124964654446, 0.13715535402297974, 0.05438023433089256, 0.09869339317083359, -0.032877374440431595, 0.010930744931101799, 0.21791744232177734, 0.05869881808757782, -0.07970340549945831, -0.1848238706588745], [-0.1773073822259903, 0.1954260766506195, -0.1644882708787918, -0.07177742570638657, -0.010274745523929596, -0.05069404095411301, 0.1396632343530655, 0.22810615599155426, -0.22408975660800934, 0.08888076990842819], [0.053619205951690674, 0.05004619061946869, -0.006997959688305855, -0.050220947712659836, -0.2624446749687195, 0.2530288100242615, -0.2280440479516983, 0.0456993542611599, -0.13775552809238434, -0.05462885648012161], [-0.1073145791888237, 0.35608357191085815, -0.27750879526138306, -0.0724356546998024, -0.1961349993944168, 0.24213749170303345, -0.07251328229904175, -0.13807769119739532, 0.004684084560722113, 0.08348634839057922], [0.2703326344490051, 0.26893430948257446, 0.2330245077610016, -0.1885882318019867, -0.2361428290605545, 0.17502573132514954, 0.2572919726371765, 0.005363080650568008, -0.3445008099079132, -0.06595299392938614], [0.11099954694509506, 0.0954674631357193, 0.2483302652835846, -0.18918661773204803, 0.02295960858464241, 0.0717630609869957, 0.12164414674043655, -0.3558119535446167, 0.2691831886768341, -1.1085940059274435e-05], [-0.0002657382283359766, -0.18894889950752258, -0.1935579478740692, -0.2004055678844452, 0.22779224812984467, -0.1864943653345108, 0.3504050672054291, 0.22021079063415527, -0.2622268795967102, -0.022280972450971603], [0.034158267080783844, -0.16038891673088074, -0.22206105291843414, 0.11427254229784012, -0.0805363804101944, -0.07895565032958984, 0.09361241012811661, 0.016301229596138, -0.12874262034893036, -0.10244136303663254], [0.1343211680650711, -0.24941296875476837, 0.29761019349098206, -0.14749398827552795, -0.2514781057834625, -0.1989513337612152, -0.07148586213588715, -0.22389626502990723, 0.15525874495506287, 0.2179711014032364], [-0.05052979290485382, -0.002063949592411518, 0.1615554839372635, 0.09110947698354721, -0.08502496778964996, 0.05688783526420593, -0.2229730486869812, -0.01920650340616703, 0.2458638697862625, -0.011900518089532852], [-0.07148512452840805, 0.09579019993543625, 0.18368428945541382, 0.14147619903087616, -0.1563873440027237, 0.1944013386964798, 0.06935829669237137, 0.07911884039640427, 0.023710573092103004, -0.11733777076005936], [0.03255695104598999, 0.1298224925994873, -0.1850099414587021, -0.03314679488539696, 0.16630101203918457, -0.012929700314998627, -0.05618612468242645, 0.04120877757668495, -0.04092077910900116, 0.11507775634527206], [0.27502545714378357, 0.31917551159858704, 0.1689901500940323, 0.197347491979599, -0.2167719006538391, -0.42577987909317017, 0.2684354782104492, -0.23249183595180511, 0.11404560506343842, 0.06712909787893295], [0.2410702109336853, 0.3033098876476288, 0.13921645283699036, -0.05732174590229988, -0.060950346291065216, -0.2528800666332245, -0.1377270221710205, -0.24416092038154602, -0.1448322981595993, 0.1742205172777176], [-0.023924607783555984, -0.02170511707663536, 0.2472294718027115, -0.017518669366836548, 0.20278441905975342, -0.2888804078102112, 0.14536643028259277, 0.22794581949710846, -0.23384754359722137, 0.04176567867398262], [0.2802024483680725, -0.22133158147335052, -0.023615190759301186, -0.12917812168598175, -0.023363543674349785, -0.1648930460214615, 0.15009889006614685, -0.19570788741111755, 0.15280498564243317, -0.1335759460926056], [0.11394950747489929, -0.26413363218307495, -0.12264201045036316, -0.24271953105926514, -0.023279717192053795, 0.2609110474586487, 0.21542933583259583, 0.26042819023132324, 0.05654343590140343, 0.029526948928833008], [-0.1126137524843216, 0.0018986125942319632, -0.24972473084926605, 0.039043132215738297, -0.01158251240849495, 0.12690705060958862, 0.008528806269168854, 0.11477555334568024, 0.09820125997066498, -0.13532981276512146], [0.12561681866645813, 0.37028220295906067, 0.12559860944747925, -0.17133919894695282, -0.2563517391681671, -0.08285418152809143, -0.22141149640083313, 0.24533221125602722, -0.11017019301652908, -0.20789991319179535], [-0.28903377056121826, 0.0693218857049942, 0.13754703104496002, -0.09547287970781326, -0.1279025822877884, 0.15367531776428223, -0.24614650011062622, -0.010567895136773586, 0.12762363255023956, -0.115720734000206], [0.07719236612319946, 0.23345807194709778, 0.10890917479991913, -0.17437727749347687, 0.1478518694639206, 0.16448549926280975, -0.27619731426239014, 0.22003863751888275, 0.033011723309755325, 0.16400662064552307], [0.10212449729442596, 0.15793868899345398, -0.21234820783138275, 0.17218250036239624, -0.04742810130119324, -0.04864629730582237, -0.11479821056127548, -0.25794920325279236, 0.27664706110954285, 0.07974404841661453], [0.20454011857509613, -0.08185501396656036, -0.10924041271209717, 0.26310601830482483, -0.25291571021080017, 0.17713797092437744, 0.04989577829837799, 0.011832591146230698, -0.11010555177927017, -0.08530236035585403], [0.10062651336193085, 0.12982122600078583, -0.06578811258077621, -0.1479678750038147, -0.1698012501001358, 0.0035616604145616293, 0.24705055356025696, -0.16601379215717316, -0.13999859988689423, -0.0554688535630703], [-0.24809789657592773, -0.06318653374910355, -0.17239288985729218, -0.14512799680233002, -0.05797575041651726, -0.04387590289115906, -0.007288599386811256, 0.2504543364048004, -0.16415737569332123, 0.31158646941185], [-0.16391941905021667, 0.16128462553024292, -0.32415851950645447, 0.1776994913816452, 0.14595326781272888, 0.015672173351049423, -0.03889954462647438, 0.19770458340644836, -0.1066850945353508, -0.024098558351397514], [-0.211152583360672, -0.19680257141590118, 0.15159127116203308, 0.0801772028207779, -0.10249549150466919, 0.13843795657157898, 0.21154122054576874, 0.192148819565773, -0.12729412317276, 0.1596439629793167], [-0.22467121481895447, -0.18805816769599915, -0.24984455108642578, 0.22222384810447693, 0.14151793718338013, 0.040775366127491, -0.18957778811454773, -0.09181110560894012, 0.25766849517822266, -0.013335215859115124]], 

"decoder/fully_connected/weights/ExponentialMovingAverage": 
[[-0.17293253540992737, 0.1357177346944809, 0.3407951891422272, 0.10482101142406464, -0.21446724236011505, -0.20104166865348816, 0.09236609935760498, -0.17935357987880707, -0.20980776846408844, -0.02652759850025177], [0.057785116136074066, -0.23049618303775787, -0.0177155751734972, -0.21439650654792786, -0.007721086498349905, -0.1748279631137848, 0.08143902570009232, 0.07974760979413986, -0.008511709049344063, 0.12050986289978027], [-0.22635820508003235, 0.17532813549041748, -0.04574958235025406, 0.15468889474868774, 0.16291695833206177, -0.11345722526311874, 0.05315038561820984, 0.19914813339710236, 0.07884041965007782, 0.2091389000415802], [-0.21507546305656433, 0.17678548395633698, -0.17404206097126007, -0.022096846252679825, -0.10828789323568344, 0.14253972470760345, -0.03927525505423546, 0.10574875771999359, -0.034141186624765396, -0.1251601278781891], [-0.25994423031806946, 0.12676604092121124, 0.04716963693499565, 0.1525139957666397, 0.14900100231170654, -0.18268683552742004, 0.2207186371088028, -0.3931981027126312, 0.23814351856708527, 0.2291230857372284], [-0.10410758852958679, 0.054031915962696075, 0.05028166249394417, 0.051418617367744446, 0.17777663469314575, 0.06040356680750847, -0.2864287793636322, -0.040662702172994614, -0.05779543146491051, 0.06800496578216553], [0.03893386945128441, -0.08733146637678146, -0.172420933842659, 0.014733993448317051, -0.2449987530708313, 0.17316998541355133, -0.05437339469790459, 0.10430707037448883, 0.18630219995975494, 0.051634471863508224], [0.21848948299884796, -0.07795482128858566, -0.103317990899086, 0.1561603844165802, -0.012713807635009289, 0.2110602706670761, -0.07331734895706177, -0.12166978418827057, 0.15767745673656464, -0.011663769371807575], [0.17888247966766357, 0.1323738545179367, 0.08389941602945328, 0.03817177563905716, 0.2205672264099121, -0.2556334435939789, -0.2906635105609894, 0.18590047955513, -0.3027411997318268, 0.09594830125570297], [0.11717722564935684, -0.1837686002254486, 0.19620588421821594, 0.05325857177376747, 0.2481391429901123, 0.06283395737409592, 0.05643070489168167, 0.2528168559074402, 0.004461418837308884, -0.3253069221973419], [-0.2823058068752289, -0.006041963119059801, -0.03434809669852257, -0.16527952253818512, -0.05676870048046112, -0.08964856714010239, -0.07405274361371994, -0.016923261806368828, 0.19969433546066284, 0.3006889820098877], [-0.033873725682497025, 0.19796313345432281, 0.19856500625610352, 0.28337424993515015, -0.3045748472213745, 0.13747237622737885, 0.027057485654950142, -0.29690390825271606, 0.34676921367645264, -0.2737800180912018], [-0.2777669429779053, 0.2411968857049942, 0.40840643644332886, -0.07619985938072205, -0.025536170229315758, -0.19783176481723785, 0.1759798228740692, -0.1921636313199997, -0.196746826171875, -0.18583354353904724], [-0.19410263001918793, 0.025666842237114906, 0.01844487339258194, -0.18483787775039673, 0.045935988426208496, -0.20795178413391113, 0.13509365916252136, 0.09617897868156433, 0.03275474160909653, -0.1465175449848175], [-0.27165624499320984, -0.2810448110103607, 0.024012252688407898, 0.2337038815021515, 0.14666087925434113, 0.27194029092788696, 0.1565987467765808, 0.24425067007541656, -0.2595345675945282, -0.14952099323272705], [-0.1979532390832901, -0.15244993567466736, 0.03005078434944153, -0.17600609362125397, -0.20854899287223816, -0.12714290618896484, 0.15561693906784058, -0.084304079413414, 0.21245193481445312, 0.038751933723688126], [-0.24112765491008759, 0.12553302943706512, 0.0022268204484134912, 0.19035141170024872, 0.16841883957386017, 0.14185404777526855, -0.2892482876777649, 0.17817054688930511, 0.028955543413758278, 0.05089797452092171], [0.2635310888290405, -0.32321158051490784, 0.3694283962249756, 0.17875954508781433, 0.00788123719394207, 0.038557495921850204, 0.19477570056915283, -0.09849832206964493, -0.32499924302101135, -0.0017653844552114606], [0.1929902583360672, 0.13853204250335693, 0.1448080837726593, 0.10280446708202362, 0.14627450704574585, 0.21037942171096802, -0.21216949820518494, -0.08549283444881439, -0.07777145504951477, 0.10291150212287903], [0.21198391914367676, -0.2525590658187866, -0.014063266105949879, 0.3213895261287689, -0.2239089161157608, -0.13508038222789764, -0.04478467255830765, 0.1473245620727539, 0.22829172015190125, -0.14336417615413666], [-0.22054004669189453, -0.09001480042934418, -0.06893681734800339, -0.058711159974336624, 0.05832003429532051, 0.015884114429354668, 0.0032810072880238295, -0.11089130491018295, 0.13991683721542358, 0.15610696375370026], [0.019907908514142036, -0.08989067375659943, 0.20950816571712494, -0.239877387881279, 0.04234989732503891, 0.046739522367715836, 0.043464820832014084, 0.1598755121231079, -0.22295042872428894, 0.1792539656162262], [-0.1833166480064392, 0.0017012442694976926, 0.025253714993596077, -0.10878235846757889, -0.16727536916732788, -0.05868057534098625, -0.07537465542554855, 0.21919631958007812, -0.03634756803512573, 0.08214107155799866], [-0.23234201967716217, 0.10501210391521454, 0.10306516289710999, -0.1434435397386551, -0.238573357462883, 0.22987720370292664, 0.1307622194290161, 0.19911842048168182, 0.1626071333885193, -0.06386812031269073], [-0.062175724655389786, 0.10287715494632721, -0.06528811156749725, -0.22355453670024872, -0.13090267777442932, -0.19118863344192505, 0.027690166607499123, -0.17283150553703308, 0.1577875316143036, 0.2740039825439453], [0.1283860206604004, -0.1546173393726349, -0.09758196026086807, 0.23698756098747253, -0.20626796782016754, 0.1325812041759491, 0.0034451393876224756, 0.028884537518024445, -0.18289288878440857, 0.09327864646911621], [0.17276959121227264, -0.0626942589879036, 0.09335719048976898, 0.2239866852760315, -0.14505253732204437, -0.09608299285173416, 0.0647410973906517, -0.17966808378696442, -0.04305389150977135, -0.1769484579563141], [0.27121755480766296, -0.038087133318185806, 0.07149916887283325, -0.2672988176345825, 0.19781547784805298, 0.32712727785110474, -0.17003773152828217, -0.131241112947464, -0.08175203949213028, -0.19914300739765167], [0.22135142982006073, -0.25430405139923096, -0.13687916100025177, -0.10873685777187347, -0.22496570646762848, 0.14863081276416779, 0.2338375449180603, -0.22432313859462738, 0.19845406711101532, -0.03151125833392143], [-0.10027799010276794, -0.10337307304143906, 0.19609229266643524, -0.17843034863471985, 0.1794711947441101, 0.1659587174654007, 0.1040143370628357, 0.01530922669917345, -0.26523616909980774, 0.03641032427549362], [-0.19106818735599518, -0.050325002521276474, -0.15252171456813812, 0.00599303562194109, 0.002809591591358185, 0.20853783190250397, 0.035857073962688446, -0.015369432978332043, -0.10508736968040466, -0.027108728885650635], [-0.11792007088661194, 0.029441380873322487, -0.24922175705432892, -0.10006038099527359, -0.1296505182981491, 0.02131660468876362, -0.04867236688733101, 0.0996696725487709, 0.043834853917360306, -0.15884503722190857], [-0.045864205807447433, -0.1236366555094719, -0.10479920357465744, -0.15979823470115662, 0.049823492765426636, 0.15100154280662537, 0.18997454643249512, -0.12047824263572693, 0.04770377278327942, 0.18766538798809052], [-0.002716416260227561, 0.09880096465349197, -0.201160728931427, 0.07721231132745743, -0.225221186876297, 0.05468015745282173, 0.21098512411117554, -0.11666034162044525, -0.21232835948467255, 0.19320282340049744], [0.11593887954950333, 0.022675976157188416, 0.15476801991462708, 0.24511060118675232, 0.05723511055111885, -0.16099803149700165, -0.19918233156204224, -0.0500468909740448, 0.14435140788555145, -0.036354340612888336], [0.06783463805913925, -0.1501971334218979, 0.18058224022388458, 0.15521785616874695, 0.12344253063201904, -0.010972431860864162, -0.07615572959184647, -0.11569856107234955, -0.0953240767121315, -0.16660653054714203], [-0.139146089553833, -0.05812761187553406, -0.26385268568992615, 0.03953626751899719, 0.04373999312520027, 0.06930194795131683, 0.28250133991241455, 0.010393716394901276, -0.038347095251083374, 0.021534956991672516], [-0.14168332517147064, 0.02849910594522953, -0.017841627821326256, 0.17293795943260193, -0.17772388458251953, 0.022600462660193443, 0.09012825787067413, 0.10477931052446365, -0.18302129209041595, -0.021693991497159004], [-0.12095946818590164, 0.10830758512020111, -0.09868510812520981, 0.06301455199718475, -0.04515794664621353, -0.12404889613389969, -0.1943078190088272, -0.13768084347248077, 0.042918626219034195, -0.05570482462644577], [-0.07843772321939468, 0.05236126482486725, 0.22073759138584137, -0.27105286717414856, -0.026852063834667206, -0.2776614725589752, 0.24389733374118805, 0.02372010052204132, 0.21364834904670715, 0.09014122188091278], [0.14681203663349152, 0.22018444538116455, 0.020382696762681007, -0.1298884004354477, -0.1675516963005066, -0.18884234130382538, 0.002078648889437318, 0.20484761893749237, 0.13609781861305237, -0.27058714628219604], [0.3340016007423401, 0.020993713289499283, -0.05499432608485222, -0.3181593418121338, -0.030645599588751793, -0.023491745814681053, -0.16546575725078583, 0.0646560788154602, -0.09483066201210022, 0.15469549596309662], [-0.16464672982692719, 0.2383193075656891, -0.18041430413722992, 0.2570444643497467, 0.12859079241752625, 0.06065589189529419, 0.21941912174224854, -0.330295205116272, -0.16581079363822937, 0.1762903779745102], [0.1266021579504013, 0.16540755331516266, -0.22486217319965363, 0.27907317876815796, 0.3059307336807251, -0.3143835961818695, 0.2163831889629364, -0.24212124943733215, -0.1449771374464035, -0.3032853901386261], [-0.23147308826446533, -0.16730986535549164, 0.14810723066329956, 0.15146026015281677, 0.04621538147330284, 0.010033679194748402, 0.05537103861570358, -0.24724796414375305, -0.07467561215162277, 0.06592955440282822], [0.0622856542468071, 0.2253163456916809, -0.23817433416843414, 0.12555909156799316, 0.021684011444449425, -0.013298952020704746, -0.20914648473262787, -0.04680612310767174, -0.2854212820529938, 0.21176502108573914], [-0.07126312702894211, 0.12342679500579834, -0.20575667917728424, -0.024379512295126915, 0.11653201282024384, 0.1438954770565033, 0.184531569480896, 0.12003141641616821, 0.12418930977582932, -0.18403513729572296], [-0.20747829973697662, 0.029513217508792877, 0.0838131532073021, -0.24571727216243744, -0.1458396315574646, 0.019842270761728287, 0.25207164883613586, 0.237716943025589, -0.007615956943482161, 0.096709705889225], [-0.0785825327038765, 0.1376868188381195, -0.42230620980262756, -0.18193964660167694, -0.039916861802339554, 0.055257052183151245, 0.24500156939029694, 0.1406298726797104, 0.20635241270065308, 0.011478557251393795], [0.028727011755108833, -0.1963726282119751, -0.04916033148765564, -0.1993865966796875, -0.2684215009212494, 0.12574467062950134, 0.2644268870353699, 0.11851941049098969, 0.2374371439218521, -0.13895219564437866], [0.025621196255087852, -0.31402334570884705, 0.06903854757547379, 0.216109961271286, -0.306824266910553, -0.19871723651885986, -0.020987872034311295, 0.14557918906211853, 0.15107469260692596, 0.2252613604068756], [0.21044236421585083, -0.10318004339933395, -0.2663598954677582, -0.12176332622766495, 0.13005469739437103, 0.0370786115527153, -0.004989714361727238, 0.2228461354970932, -0.06445720046758652, -0.006602557376027107], [0.2654554545879364, -0.14637190103530884, -0.1357375979423523, -0.26946935057640076, 0.3996378779411316, -0.17140543460845947, 0.02188981883227825, -0.18969058990478516, -0.05391613766551018, -0.10412571579217911], [-0.13959148526191711, 0.23805245757102966, -0.3093082308769226, -0.07779450714588165, -0.2578772008419037, -0.13170446455478668, 0.25926268100738525, 0.3429751992225647, -0.24634848535060883, 0.09814928472042084], [0.005479809362441301, 0.2257523089647293, -0.10623307526111603, -0.17244715988636017, 0.018831102177500725, 0.09304599463939667, 0.041262511163949966, 0.058847129344940186, 0.05537646263837814, 0.018041949719190598], [0.31771543622016907, 0.3397768437862396, -0.16426922380924225, -0.1492045670747757, -0.1245807409286499, -0.06434586644172668, -0.20832909643650055, 0.051314834505319595, -0.16432718932628632, -0.23991182446479797], [0.08422889560461044, 0.17834867537021637, 0.10172367095947266, -0.24259336292743683, 0.11537139862775803, 0.149389386177063, -0.28084784746170044, -0.13242168724536896, 0.11806050688028336, 0.0811382532119751], [0.10861305147409439, 0.25671473145484924, -0.29501157999038696, -0.15669186413288116, 0.16238601505756378, 0.2516995966434479, -0.1342596560716629, -0.14533664286136627, -0.16535022854804993, 0.07294847071170807], [-0.09560639411211014, 0.060690850019454956, 0.1284402757883072, 0.012066559866070747, 0.22378870844841003, -0.09595697373151779, 0.001194689073599875, -0.19463256001472473, 0.05457884818315506, 0.035281021147966385], [0.23013576865196228, -0.11571331322193146, 0.14861568808555603, 0.027927326038479805, 0.15114043653011322, 0.1321873813867569, 0.19828131794929504, -0.3351749777793884, -0.16666708886623383, 0.11709544062614441], [-0.05090424418449402, 0.203116312623024, 0.09301849454641342, 0.11491912603378296, 0.2924446165561676, 0.06945143640041351, -0.16304442286491394, -0.3355078399181366, 0.19314342737197876, -0.05230574309825897], [-0.28589606285095215, -0.022764699533581734, -0.25238415598869324, -0.0018492690287530422, 0.16935333609580994, 0.08670638501644135, 0.15221405029296875, 0.27144280076026917, 0.22584666311740875, -0.17451517283916473], [0.035245250910520554, -0.34435907006263733, 0.3147641718387604, 0.13273760676383972, -0.24513718485832214, -0.04569016396999359, -0.2741904556751251, 0.21598266065120697, 0.08763493597507477, -0.08166579157114029], [0.273420125246048, -0.3614920973777771, 0.16206008195877075, 0.07910873740911484, -0.06567905098199844, 0.18533505499362946, -0.34695279598236084, 0.2710130512714386, -0.08488338440656662, 0.058759354054927826], [0.23428647220134735, 0.12069059163331985, -0.18465395271778107, 0.028143687173724174, -0.13325826823711395, -0.1186629980802536, -0.02311963215470314, 0.02801569364964962, -0.03675531968474388, -0.16576701402664185], [0.012295927852392197, -0.03186371922492981, -0.09177030622959137, -0.12207504361867905, 0.3305495083332062, 0.12820997834205627, -0.07177885621786118, -0.2079077959060669, 0.0971749946475029, -0.08623187243938446], [0.07001616805791855, -0.1997961848974228, 0.014846899546682835, -0.19355982542037964, 0.2313603013753891, -0.18181324005126953, -0.08865607529878616, -0.23655447363853455, 0.1371360719203949, 0.2144581824541092], [-0.04181709513068199, -0.12510554492473602, 0.22910155355930328, 0.1547503024339676, 0.03844591975212097, 0.029133029282093048, -0.268094539642334, -0.09362869709730148, -0.3023802638053894, 0.07370369136333466], [0.1135772168636322, -0.15679815411567688, 0.1894678920507431, 0.04115587845444679, 0.0728735476732254, 0.008298958651721478, 0.02197040617465973, -0.15988261997699738, -0.08709502220153809, -0.2146708071231842], [-0.20636507868766785, -0.06167561933398247, 0.20074491202831268, 0.08175279945135117, -0.22086746990680695, 0.0894101932644844, 0.04511254280805588, 0.11228235065937042, 0.10395345091819763, -0.038125358521938324], [0.13976511359214783, -0.1862589418888092, 0.18765440583229065, 0.04866690933704376, -0.0683862715959549, 0.03215765208005905, 0.18861918151378632, 0.20800840854644775, -0.09936617314815521, -0.1756337434053421], [0.20992068946361542, 0.09396389126777649, 0.07713024318218231, -0.042689837515354156, -0.19169947504997253, 0.019819656386971474, -0.24713608622550964, -0.04242178052663803, 0.23470982909202576, 0.13309496641159058], [-0.2170824557542801, 0.18967317044734955, 0.24861453473567963, 0.13946932554244995, 0.06559838354587555, -0.06917554140090942, -0.16353687644004822, -0.12549053132534027, -0.16736428439617157, -0.28214341402053833], [0.06768523901700974, 0.19018970429897308, 0.1275029182434082, 0.15650860965251923, -0.218712717294693, 0.06391097605228424, -0.24502013623714447, -0.02141326107084751, -0.09597469121217728, 0.22854453325271606], [-0.27391207218170166, 0.21337510645389557, -0.24396172165870667, 0.01627211458981037, -0.11329813301563263, -0.3693855404853821, 0.32190069556236267, 0.26633021235466003, 0.10377704352140427, 0.029637346044182777], [-0.0166692566126585, 0.07047086954116821, -0.11254207044839859, -0.23419539630413055, 0.0905325636267662, -0.12818719446659088, 0.21820484101772308, -0.1870502382516861, 0.13243745267391205, -0.06405945122241974], [-0.2317986637353897, -0.14211328327655792, 0.03994123637676239, -0.0964571014046669, -0.08188734948635101, -0.182103231549263, -0.03761492297053337, 0.12624336779117584, -0.0051002600230276585, 0.2529314458370209], [0.20380622148513794, 0.1436397135257721, -0.13373447954654694, -0.278942346572876, -0.16318775713443756, 0.20479604601860046, 0.05136328563094139, 0.13317830860614777, 0.14411355555057526, -0.18046793341636658], [-0.1052260622382164, 0.07279182970523834, -0.05707656964659691, -0.18244656920433044, 0.09147506952285767, -0.11637633293867111, 0.17925098538398743, -0.106345996260643, 0.08852104097604752, 0.14431174099445343], [0.307740718126297, -0.0830884724855423, -0.347400426864624, 0.0979626327753067, 0.19442148506641388, -0.3200065493583679, 0.10312920808792114, 0.2682497501373291, 0.009165978990495205, -0.027476444840431213], [-0.10314461588859558, -0.026284392923116684, 0.2159518301486969, 0.24881216883659363, 0.29147931933403015, 0.08506626635789871, 0.0035147657617926598, -0.24215896427631378, -0.15609034895896912, -0.0763988271355629], [-0.013900196179747581, 0.10608023405075073, 0.17109960317611694, -0.1071053221821785, -0.31958112120628357, -0.12000849843025208, 0.000609155569691211, -0.0854455903172493, 0.08700766414403915, 0.1254476010799408], [0.0795474499464035, -0.03469768539071083, 0.2912820875644684, -0.15728195011615753, 0.0733320340514183, 0.018102211877703667, -0.049224842339754105, -0.1457342952489853, 0.012450852431356907, -0.19218753278255463], [-0.09471184015274048, -0.03033394180238247, 0.0709935799241066, 0.09185493737459183, 0.23402123153209686, -0.029601452872157097, -0.18412908911705017, 0.09665276110172272, 0.06281536817550659, 0.15071262419223785], [0.004122766200453043, -0.07486753910779953, -0.11521615087985992, -0.06409770250320435, 0.06281453371047974, 0.16502225399017334, 0.16904982924461365, -0.14244568347930908, -0.15204356610774994, -0.1905984878540039], [-0.19481083750724792, 0.25806325674057007, -0.10187514871358871, 0.07998877018690109, 0.2496442198753357, -0.014630666002631187, -0.2462724894285202, -0.07203036546707153, -0.11563396453857422, 0.1960826814174652], [-0.19629870355129242, 0.03360019624233246, 0.12153030186891556, -0.06688857078552246, 0.3145486116409302, 0.02397237718105316, -0.20688332617282867, -0.09751970320940018, 0.03036927990615368, -0.2414398193359375], [0.2717074155807495, 0.0775526687502861, -0.3709931969642639, 0.14454863965511322, -0.08118768036365509, -0.2881103456020355, -0.1224229708313942, 0.17518773674964905, 0.26628661155700684, 0.17676323652267456], [-0.19414810836315155, 0.07261601835489273, -0.01651069149374962, -0.14921730756759644, -0.1492481380701065, 0.15373548865318298, 0.16726525127887726, -0.2000454068183899, 0.01002371683716774, 0.08654886484146118], [-0.022003302350640297, -0.06168810650706291, -0.15959002077579498, -0.15194186568260193, 0.23996558785438538, -0.1612406075000763, 0.07753990590572357, 0.0886228010058403, 0.06561382114887238, 0.01194800529628992], [0.06642427295446396, -0.17182070016860962, 0.08828763663768768, -0.2153838872909546, 0.14703115820884705, -0.0880044475197792, -0.18477152287960052, -0.09470817446708679, -0.04259098321199417, 0.2795845866203308], [-0.2563510835170746, -0.19076061248779297, -0.07476522028446198, 0.10846184939146042, 0.2603088617324829, 0.028193399310112, -0.07490438222885132, 0.08956632018089294, -0.10886615514755249, 0.15764272212982178], [-0.013422518968582153, 0.037800148129463196, 0.16080056130886078, 0.1878868043422699, 0.16115973889827728, 0.17931972444057465, -0.19315750896930695, 0.18986965715885162, 0.15990012884140015, -0.1919737160205841], [0.03416593000292778, -0.3244327902793884, -0.07080463320016861, 0.12512770295143127, 0.19287273287773132, 0.17834021151065826, -0.04945541173219681, -0.29291582107543945, -0.23217913508415222, 0.3348538875579834], [0.1849881112575531, 0.1690087616443634, 0.334086537361145, 0.12337806075811386, 0.12884224951267242, -0.26520389318466187, 0.040279146283864975, -0.2634245753288269, -0.22297222912311554, -0.07320606708526611], [-0.12398756295442581, 0.048762086778879166, 0.00963545497506857, 0.16391152143478394, 0.1973312795162201, 0.15815319120883942, 0.05426761880517006, -0.11083579808473587, -0.034283578395843506, 0.03814985230565071], [-0.13123176991939545, -0.2221975326538086, 0.011751865968108177, 0.26607170701026917, -0.11146198958158493, 0.2231099158525467, 0.05845024436712265, -0.22784385085105896, -0.15468113124370575, 0.0060243201442062855], [-0.23561324179172516, 0.010668095201253891, -0.06634174287319183, -0.2270137518644333, 0.34478500485420227, 0.11358693987131119, 0.15071211755275726, -0.037040725350379944, -0.15840910375118256, -0.09438273310661316], [0.27625036239624023, -0.23283489048480988, -0.2563239336013794, -0.11265640705823898, -0.09387601166963577, 0.23846834897994995, 0.2394103854894638, -0.3173696994781494, 0.32186421751976013, -0.04652547836303711], [0.005138690117746592, -0.34136611223220825, 0.01789741776883602, -0.31903019547462463, 0.2743644714355469, 0.18893341720104218, 0.12882950901985168, 0.2568351924419403, -0.3120694160461426, 0.17464579641819], [-0.03117678500711918, -0.1983213573694229, 0.010026725009083748, -0.04482678696513176, -0.20009365677833557, -0.11108015477657318, 0.11288873851299286, 0.3185242712497711, -0.004710605833679438, -0.09607111662626266], [0.07289082556962967, -0.26952922344207764, -0.07351165264844894, -0.13388395309448242, -0.07725098729133606, -0.15130335092544556, 0.0772712230682373, -0.1162402406334877, 0.20885609090328217, 0.31760546565055847], [0.20948605239391327, -0.17650991678237915, 0.025222862139344215, -0.05933618173003197, 0.08369946479797363, 0.0674196183681488, -0.10192031413316727, -0.08936075866222382, 0.1070237010717392, 0.10736587643623352], [0.2940501570701599, -0.08879934251308441, -0.13195115327835083, 0.13675880432128906, 0.1881956160068512, -0.3208790123462677, -0.20677311718463898, 0.10223320126533508, 0.2338351607322693, -0.008957115933299065], [-0.13676327466964722, -0.08561378717422485, 0.017578624188899994, -0.12722478806972504, 0.07798753678798676, 0.35304614901542664, -0.11775565892457962, 0.13237188756465912, -0.19007952511310577, -0.14074082672595978], [-0.007515084929764271, 0.17028658092021942, 0.13686518371105194, -0.009270708076655865, -0.0654408186674118, -0.27558019757270813, 0.03694503381848335, -0.003046558238565922, -0.0008681986946612597, 0.04216325283050537], [0.04028389975428581, 0.14577746391296387, 0.20682549476623535, -0.015562792308628559, 0.20872862637043, 0.21228252351284027, 0.004709375556558371, -0.0984785184264183, 0.21558913588523865, -0.3594890534877777], [0.00027153478004038334, -0.03547201305627823, -0.11146122217178345, -0.13441243767738342, 0.18576540052890778, -0.15330694615840912, -0.09076273441314697, -0.03171864524483681, 0.18947181105613708, 0.12361937761306763], [0.014413200318813324, 0.035482339560985565, 0.16532310843467712, -0.09814222157001495, 0.09069535881280899, -0.25160080194473267, 0.16701152920722961, 0.006813288200646639, 0.023661615327000618, 0.17819026112556458], [-0.31538981199264526, -0.04961881414055824, -0.12484979629516602, -0.06757773458957672, -0.11980914324522018, 0.3024212419986725, -0.18412384390830994, -0.34660404920578003, 0.29216912388801575, 0.3449455201625824], [0.24998241662979126, 0.18478865921497345, -0.2104557454586029, -0.24376685917377472, 0.13396868109703064, 0.04514201730489731, 0.1842329204082489, -0.2665995657444, 0.10440682619810104, -0.1858319193124771], [-0.26862791180610657, 0.3008041977882385, 0.28692615032196045, -0.2214849442243576, -0.057431209832429886, -0.31327104568481445, 0.13548383116722107, 0.02002975158393383, -0.22516021132469177, 0.19318072497844696], [-0.2621779441833496, 0.17810307443141937, 0.006451951339840889, 0.1906496286392212, 0.17335903644561768, 0.08059116452932358, -0.1871899962425232, 0.18476474285125732, -0.08548402786254883, 0.15291541814804077], [0.049454595893621445, -0.00021620967891067266, -0.0561373233795166, 0.06381084769964218, 0.025516079738736153, 0.04563776031136513, 0.04489421099424362, -0.1372903436422348, -0.22509519755840302, 0.1252182573080063], [0.06314114481210709, 0.06648664176464081, 0.2140623778104782, -0.10884871333837509, 0.009021968580782413, 0.10017847269773483, -0.19264782965183258, 0.16970212757587433, 0.20054782927036285, 0.16982105374336243], [-0.12731622159481049, 0.2090960592031479, 0.036145374178886414, -0.15277177095413208, -0.06750190258026123, -0.10466981679201126, 0.01983107440173626, 0.09123151004314423, -0.1784771978855133, -0.19441352784633636], [0.22747555375099182, 0.1410152018070221, 0.04795039817690849, 0.14581848680973053, 0.05851670354604721, -0.027415592223405838, -0.2248205691576004, 0.19311009347438812, -0.10193225741386414, -0.3114983141422272], [-0.18199069797992706, -0.028267771005630493, -0.21586088836193085, 0.32689300179481506, 0.11317601054906845, -0.04549703374505043, -0.19006121158599854, 0.08904958516359329, -0.0991591289639473, -0.18946094810962677], [0.06678943336009979, -0.025883890688419342, 0.22191458940505981, 0.0573275163769722, 0.14474694430828094, -0.0356004498898983, 0.2645057737827301, -0.33566784858703613, -0.22943943738937378, 0.23998525738716125], [0.06899160891771317, -0.2556544542312622, -0.2875679135322571, 0.16895699501037598, 0.10553792864084244, -0.06209144741296768, 0.14123055338859558, 0.15472988784313202, 0.14455163478851318, 0.2227727323770523], [0.0709243044257164, 0.28659787774086, -0.15874312818050385, -0.30925464630126953, 0.19068141281604767, 0.04121559485793114, -0.2434132695198059, 0.2415638566017151, -0.10778512060642242, 0.27422982454299927], [-0.24847865104675293, -0.1149260476231575, -0.08539523184299469, -0.11045504361391068, 0.23236539959907532, 0.014190157875418663, 0.06609499454498291, 0.09055247902870178, -0.10385701060295105, 0.02823975868523121], [0.12554523348808289, 0.04739822819828987, 0.1543189138174057, -0.20964162051677704, 0.16576242446899414, 0.1281757801771164, -0.2418789267539978, -0.023450832813978195, 0.12410558015108109, 0.06836922466754913], [0.20336109399795532, 0.058374837040901184, 0.12851209938526154, 0.2034395933151245, -0.28785333037376404, 0.1651289463043213, -0.19334039092063904, -0.021728776395320892, 0.17794057726860046, 0.19367267191410065], [0.09292255342006683, 0.17627964913845062, 0.01367167104035616, -0.25314170122146606, -0.128996804356575, -0.029060300439596176, -0.03492287918925285, 0.0249949861317873, -0.15377923846244812, 0.0469784215092659], [-0.08325778692960739, -0.08937514573335648, 0.19202274084091187, -0.0662645623087883, -0.06229958310723305, 0.19405224919319153, 0.09786643832921982, 0.037934135645627975, 0.10810665786266327, -0.024447819218039513], [-0.20271630585193634, -0.1806398183107376, -0.2992572486400604, 0.2747175693511963, 0.2114606648683548, -0.1376817375421524, -0.038581714034080505, 0.053387269377708435, 0.3381515443325043, -0.21002909541130066], [-0.09333480149507523, -0.08606060594320297, -0.297132670879364, -0.11502982676029205, -0.13533347845077515, 0.08057118207216263, 0.09586217999458313, -0.11406218260526657, 0.18008758127689362, 0.16163210570812225], [-0.20231522619724274, 0.19122032821178436, 0.1876480132341385, -0.11128702014684677, -0.004548710770905018, -0.13095751404762268, 0.24030622839927673, 0.08496072888374329, -0.21151453256607056, -0.054153699427843094], [-0.26196664571762085, -0.12159094959497452, -0.16897252202033997, 0.05163278058171272, -0.020851392298936844, 0.21041060984134674, 0.044452082365751266, -0.004680647514760494, 0.12087293714284897, -0.0401366762816906], [-0.22224663197994232, -0.18648087978363037, 0.015339850448071957, 0.193689227104187, 0.0075805410742759705, -0.27601590752601624, -0.21806010603904724, 0.16440114378929138, -0.1341937780380249, 0.21088474988937378], [0.13448329269886017, 0.040645092725753784, -0.13515597581863403, 0.11655186861753464, 0.14961756765842438, -0.12647172808647156, 0.004547667223960161, 0.1574958860874176, -0.003892614273354411, -0.007124072406440973], [-0.03264976292848587, -0.1173681765794754, -0.23538579046726227, 0.261792927980423, -0.03146495297551155, 0.05851699039340019, -0.19581696391105652, -0.00312340771779418, 0.0635470524430275, 0.1687943935394287], [-0.04558916389942169, -0.24352142214775085, -0.12134504318237305, 0.29238584637641907, -0.06567712128162384, -0.055412083864212036, -0.15553951263427734, 0.07805125415325165, 0.011422811076045036, 0.2518312633037567], [0.19816932082176208, 0.018643101677298546, 0.22805443406105042, -0.11127027124166489, -0.15528777241706848, -0.26412931084632874, -0.134137824177742, 0.11088107526302338, -0.04185350239276886, -0.13097265362739563], [0.16116511821746826, -0.22248415648937225, -0.1525508165359497, 0.18836992979049683, 0.1642272025346756, -0.125894695520401, 0.21165481209754944, -0.2166532278060913, -0.11332084983587265, -0.147330179810524], [0.018087267875671387, 0.23343144357204437, -0.13390102982521057, -0.06847763061523438, 0.14638331532478333, -0.12540793418884277, 0.003761383704841137, 0.03471098840236664, -0.007224760949611664, -0.17271146178245544], [0.1260613054037094, 0.2039283663034439, -0.29259684681892395, -0.23549841344356537, 0.10189192742109299, -0.024420933797955513, 0.07176391780376434, 0.16565121710300446, 0.08568631857633591, -0.14265130460262299], [0.03447605296969414, -0.2860671579837799, 0.09838813543319702, 0.16772575676441193, -0.08948513120412827, -0.19420795142650604, 0.0609966441988945, 0.26844164729118347, -0.19058360159397125, 0.12283000349998474], [0.25470808148384094, -0.06887543946504593, -0.021483689546585083, -0.17084932327270508, -0.2316778153181076, -0.030681993812322617, 0.18945595622062683, 0.011360260657966137, -0.03956301137804985, -0.0974426120519638], [0.0467161126434803, 0.03725538030266762, -0.23334047198295593, 0.20267967879772186, 0.02841281332075596, 0.13659487664699554, -0.13877937197685242, 0.06755185127258301, -0.06115511432290077, -0.04771341755986214], [-0.028780238702893257, -0.19491168856620789, 0.10010483860969543, 0.20150333642959595, 0.14886769652366638, -0.08333997428417206, -0.026248369365930557, -0.19237099587917328, 0.11503423750400543, -0.09554855525493622], [0.042463187128305435, -0.1896265149116516, 0.008137188851833344, -0.0170458871871233, 0.036609821021556854, 0.20531654357910156, 0.07570075988769531, 0.032761137932538986, -0.16692398488521576, -0.17578455805778503], [-0.18115758895874023, -0.07507915794849396, 0.20810872316360474, -0.14694562554359436, 0.02230537123978138, 0.27990713715553284, 0.1636291742324829, -0.05384188890457153, -0.05809814855456352, -0.23141242563724518], [0.18765512108802795, -0.0741218850016594, 0.07809469848871231, -0.043593548238277435, -0.19828654825687408, 0.2641937732696533, 0.1913992166519165, 0.2851821780204773, -0.1672423779964447, -0.2544998526573181], [0.27481287717819214, -0.26187923550605774, 0.2960174083709717, 0.2921663224697113, -0.12895821034908295, -0.19357725977897644, 0.13752934336662292, -0.11347906291484833, -0.2724742293357849, 0.22586698830127716], [-0.03613363951444626, 0.2840082049369812, 0.1980234682559967, -0.15461638569831848, -0.03424084186553955, -0.11197498440742493, -0.10042282938957214, -0.22902683913707733, 0.012166027911007404, -0.03905066102743149], [-0.19465914368629456, 0.1717112958431244, 0.31666529178619385, 0.1235794872045517, -0.24219876527786255, -0.0014137054095044732, -0.05273335799574852, 0.005009970162063837, 0.08234105259180069, -0.18535882234573364], [0.10208193957805634, -0.25219881534576416, 0.29423463344573975, -0.23355965316295624, 0.06293819844722748, 0.1882973611354828, 0.17316511273384094, 0.12985894083976746, -0.28210344910621643, -0.23848459124565125], [0.06105120852589607, 0.011674761772155762, 0.15936516225337982, 0.1037125438451767, 0.13255812227725983, -0.19882924854755402, 0.21038757264614105, -0.05850621685385704, 0.1662352830171585, -0.11426010727882385], [-0.013401246629655361, 0.18432952463626862, 0.2167241871356964, -0.30215585231781006, 0.24341081082820892, 0.19804228842258453, -0.14835692942142487, 0.1746847778558731, -0.04808640480041504, -0.300737589597702], [0.2329096794128418, 0.34672829508781433, -0.2653219997882843, -0.10307057201862335, -0.24231106042861938, -0.03885518014431, -0.011436405591666698, -0.26468542218208313, 0.24104627966880798, -0.0412282757461071], [-0.0738433226943016, 0.26979172229766846, -0.1625538468360901, 0.14378906786441803, -0.0004306878545321524, -0.01287784893065691, 0.14467161893844604, 0.0737583264708519, -0.11436648666858673, -0.19337855279445648], [-0.03750140592455864, -0.18443183600902557, -0.2069125920534134, -0.17991922795772552, -0.008743762969970703, 0.20730824768543243, 0.2594899535179138, -0.10929036885499954, -0.15638794004917145, -0.037296362221241], [-0.1556076854467392, -0.14914587140083313, 0.016197610646486282, 0.15898030996322632, 0.13674743473529816, 0.1772683709859848, -0.257758766412735, -0.1986483931541443, 0.3024876117706299, -0.11039078235626221], [-0.2804894745349884, 0.12420974671840668, 0.0007056543254293501, 0.04189453646540642, 0.25872230529785156, 0.2055361568927765, -0.21934844553470612, -0.18580496311187744, -0.2330227792263031, 0.11839395761489868], [0.18296055495738983, 0.13158483803272247, -0.22505000233650208, 0.15936999022960663, -0.023859603330492973, -0.019983451813459396, -0.20717425644397736, 0.11942247301340103, -0.23891720175743103, 0.26129454374313354], [0.2358057200908661, -0.03453049436211586, -0.09665030241012573, 0.23012937605381012, -0.03254128620028496, -0.03934802487492561, 0.21209973096847534, 0.2676439881324768, -0.2221098393201828, -0.2559567987918854], [-0.2111780196428299, 0.1806412786245346, 0.09618648886680603, 0.07276863604784012, -0.18116708099842072, -0.09038172662258148, 0.1639598160982132, -0.03737655282020569, -0.2152618169784546, 0.24011355638504028], [0.0728292465209961, -0.0673997700214386, 0.08815566450357437, 0.1174393817782402, 0.1449582576751709, -0.3569644093513489, 0.2674960792064667, 0.10423169285058975, 0.19308046996593475, -0.16073261201381683], [-0.1170254796743393, 0.15266144275665283, 0.13297583162784576, -0.13801290094852448, -0.04920504614710808, -0.24258364737033844, 0.019348429515957832, -0.1481093168258667, 0.13064555823802948, -0.012090145610272884], [-0.09375179558992386, -0.1374063491821289, 0.009462898597121239, 0.18996216356754303, -0.24701352417469025, 0.062100231647491455, -0.08488700538873672, 0.10461807996034622, -0.17366282641887665, 0.12150713801383972], [-0.19943924248218536, -0.2680453062057495, 0.12842075526714325, 0.11716058105230331, 0.18882566690444946, -0.26866501569747925, 0.18427394330501556, 0.007904022000730038, 0.10032376646995544, 0.2102413922548294], [0.3420726954936981, 0.0462489016354084, -0.07050226628780365, -0.09397444874048233, -0.18980927765369415, -0.1719209998846054, 0.20860391855239868, -0.11746721714735031, -0.10127521306276321, -0.0011054484639316797], [-0.12009409070014954, -0.08843835443258286, 0.2979169487953186, -0.22725991904735565, -0.06041870266199112, -0.20168793201446533, -0.18487225472927094, 0.3486711084842682, -0.11687972396612167, 0.03254711255431175], [0.09927244484424591, 0.09608344733715057, -0.015549961477518082, 0.165509894490242, -0.10601989179849625, 0.050540488213300705, 0.02197573147714138, 0.20852112770080566, -0.12207254022359848, -0.054010432213544846], [0.1667710840702057, -0.20750544965267181, -0.006287618074566126, -0.1064637154340744, 0.1472875475883484, 0.09247462451457977, 0.08500499278306961, 0.20825351774692535, 0.20679907500743866, -0.028023963794112206], [-0.10098278522491455, 0.21136747300624847, 0.10079903155565262, 0.24756121635437012, -0.09123535454273224, 0.11699428409337997, -0.20947487652301788, 0.09118486195802689, -0.24117444455623627, -0.1566183865070343], [0.022133290767669678, -0.2033291757106781, -0.2215343713760376, -0.0581037662923336, 0.304673969745636, 0.1024659052491188, 0.315574586391449, -0.06383473426103592, -0.1571233868598938, -0.00017365810344927013], [-0.020474795252084732, -0.09572004526853561, -0.12424031645059586, -0.25515076518058777, -0.20724798738956451, 0.3600032329559326, 0.2230028659105301, -0.14742109179496765, -0.16255255043506622, -0.021497249603271484], [-0.23342032730579376, 0.13622884452342987, -0.08076576888561249, -0.015076978132128716, -0.05937551334500313, 0.12580500543117523, 0.0017799556953832507, -0.14521387219429016, 0.21874819695949554, 0.17536504566669464], [0.1717320829629898, 0.2777509093284607, -0.2130880206823349, -0.279231458902359, 0.22956021130084991, 0.14670763909816742, 0.28769204020500183, -0.3255470097064972, 0.007243249099701643, -0.03901118412613869], [-0.07724447548389435, -0.06262344866991043, -0.07137145102024078, 0.09385783970355988, 0.3287356197834015, -0.18681828677654266, 0.1282391995191574, 0.1083402931690216, -0.14476378262043, -0.1513957381248474], [-0.07221411913633347, -0.15168927609920502, -0.0871121883392334, 0.2885878086090088, -0.2557145953178406, -0.14994002878665924, -0.22173596918582916, -0.10716172307729721, 0.20492716133594513, 0.20142914354801178], [-0.08620034158229828, -0.14190395176410675, -0.15530924499034882, 0.048165615648031235, 0.038113851100206375, -0.24271941184997559, 0.27102741599082947, -0.01193904783576727, 0.14935654401779175, -0.01192541141062975], [-0.046587198972702026, -0.30733048915863037, 0.19422775506973267, 0.08614469319581985, 0.35899460315704346, -0.05217761546373367, -0.05372483655810356, -0.11737579852342606, 0.22559499740600586, -0.3193891644477844], [0.22589345276355743, -0.04956398904323578, -0.1064627543091774, -0.23247885704040527, -0.13191965222358704, -0.04836516082286835, 0.1264096349477768, -0.21875351667404175, 0.1253163367509842, 0.0054098209366202354], [-0.20736163854599, 0.22482524812221527, 0.1284499317407608, 0.028445767238736153, -0.1031726598739624, 0.20144055783748627, 0.05182351917028427, 0.016987444832921028, 0.0637456476688385, -0.1288582980632782], [-0.11793975532054901, 0.10743705928325653, 0.0017683622427284718, -0.021120509132742882, 0.11724064499139786, -0.13092736899852753, 0.01110951416194439, -0.2399393916130066, -0.1978088915348053, -0.07716678082942963], [-0.009745066054165363, -0.17265215516090393, -0.030853696167469025, 0.17226944863796234, -0.0833149254322052, -0.19357037544250488, -0.03653378784656525, 0.020252766087651253, -0.1544928252696991, 0.2513907849788666], [-0.3076659142971039, -0.008558695204555988, 0.04966733232140541, 0.1489674150943756, -0.12417300045490265, 0.013249430805444717, 0.2824110686779022, -0.18343134224414825, -0.048083994537591934, 0.2108626812696457], [0.08219844847917557, -0.20852379500865936, -0.28165221214294434, 0.15827707946300507, 0.022577492520213127, 0.17071889340877533, -0.1151454895734787, -0.000304606044664979, 0.031532108783721924, 0.13758856058120728], [-0.21628551185131073, -0.0781937912106514, 0.06252850592136383, 0.12905369699001312, 0.0561126209795475, -0.011600629426538944, -0.1639089435338974, -0.035874057561159134, 0.24937430024147034, -0.21707510948181152], [0.1296347677707672, -0.01779865473508835, -0.039205364882946014, 0.11632926017045975, 0.13295556604862213, 0.13390053808689117, -0.26762673258781433, -0.15784427523612976, 0.11598095297813416, 0.08068092912435532], [-0.34794116020202637, -0.25263461470603943, 0.06346522271633148, -0.010210449807345867, 0.1335950493812561, -0.2581007182598114, 0.3051888942718506, 0.1598384827375412, 0.162225142121315, -0.20777559280395508], [0.20696261525154114, -0.2279605269432068, -0.19999532401561737, 0.3128817677497864, -0.13583248853683472, 0.15606051683425903, -0.13919603824615479, 0.11253945529460907, -0.02453014627099037, -0.2562795579433441], [-0.25294288992881775, 0.17978478968143463, 0.1824813187122345, -0.10835184901952744, -0.01370954792946577, -0.20207037031650543, 0.11121953278779984, -0.05418681353330612, 0.23033669590950012, -0.13159552216529846], [0.2393447905778885, 0.2520939111709595, 0.2189532369375229, -0.31975024938583374, 0.07443765550851822, -0.24770469963550568, -0.28964489698410034, 0.17355166375637054, 0.0015790904872119427, 0.09382478147745132], [-0.35046008229255676, -0.13005077838897705, 0.30039462447166443, 0.28081944584846497, -0.14414620399475098, -0.04762867093086243, -0.07665763795375824, 0.19914083182811737, 0.203352153301239, -0.27012619376182556], [0.2628740668296814, -0.09107847511768341, 0.15781790018081665, -0.0845227763056755, -0.058842066675424576, -0.12879347801208496, 0.1054571270942688, -0.020454732701182365, -0.02035992406308651, 0.12983281910419464], [0.19758634269237518, -0.17435652017593384, 0.32136380672454834, 0.13023872673511505, 0.17255380749702454, -0.25165432691574097, -0.1983703374862671, 0.08696408569812775, -0.24347002804279327, 0.1195857897400856], [-0.28673458099365234, 0.14901931583881378, 0.12925511598587036, 0.1887003630399704, -0.22350645065307617, -0.16789111495018005, 0.16029316186904907, -0.026762761175632477, 0.3041718006134033, -0.25666543841362], [0.03347925841808319, -0.10820119827985764, 0.0007860661717131734, -0.16016550362110138, 0.38643646240234375, -0.18119405210018158, -0.1447107046842575, -0.08827673643827438, -0.039741721004247665, -0.1571069359779358], [-0.06983029097318649, -0.14768850803375244, 0.06393541395664215, 0.07958247512578964, -0.19559603929519653, -0.16312845051288605, -0.02396685630083084, 0.03740307688713074, 0.045685701072216034, -0.11238087713718414], [-0.10105111449956894, -0.12077537924051285, 0.1641419231891632, -0.03348776698112488, -0.32052937150001526, 0.22548048198223114, 0.046850692480802536, -0.17676955461502075, 0.04646200314164162, 0.1485791802406311], [-0.19474227726459503, -0.22905540466308594, 0.02351793274283409, 0.34697195887565613, -0.21413126587867737, -0.009174340404570103, 0.054883938282728195, -0.23864056169986725, 0.326998233795166, -0.197552889585495], [-0.11441244184970856, 0.1154308021068573, -0.2774032652378082, 0.09732573479413986, 0.1665230393409729, -0.04692642018198967, -0.1753465086221695, 0.09354143589735031, -0.1827155351638794, 0.11782589554786682], [0.20863254368305206, -0.019255302846431732, -0.00930858962237835, 0.0814615935087204, 0.09928283095359802, 0.03469564765691757, -0.01232244074344635, 0.09122387319803238, -0.17525023221969604, -0.14831364154815674], [0.047140881419181824, -0.2698892056941986, 0.16342806816101074, 0.05520201846957207, 0.023119449615478516, 0.0015517889987677336, -0.040591705590486526, -0.2593919634819031, 0.06391513347625732, 0.10441513359546661], [-0.14187993109226227, -0.018179818987846375, -0.09728290885686874, 0.2601587474346161, -0.2331012636423111, 0.11196465790271759, -0.2326403558254242, 0.18616576492786407, -0.13814058899879456, 0.2665655314922333], [0.22752924263477325, -0.12012111395597458, -0.2050475776195526, 0.05862586572766304, 0.1800777018070221, -0.1746038943529129, 0.06869212538003922, 0.04722147062420845, -0.1758054494857788, 0.08898594230413437], [-0.048645954579114914, -0.07453670352697372, 0.16063562035560608, 0.04329357668757439, 0.13572776317596436, -0.24206523597240448, -0.18460524082183838, 0.052472781389951706, 0.30022093653678894, -0.1703779250383377], [-0.16877752542495728, 0.19156889617443085, 0.023022662848234177, 0.18126651644706726, -0.2622198462486267, 0.2388146072626114, 0.24614930152893066, -0.16861335933208466, -0.09788878262042999, -0.10740984231233597], [0.1579442024230957, -0.08624138683080673, 0.19349853694438934, -0.10479824244976044, 0.03664878383278847, -0.1151810735464096, -0.06398661434650421, 0.03128247335553169, 0.09891553223133087, -0.12433836609125137], [-0.10140404105186462, -0.04154447093605995, -0.27467650175094604, 0.27518415451049805, 0.06957728415727615, 