{"decoder/fully_connected/biases": [-0.14173954725265503, -0.06330546736717224, 0.07787652313709259, 0.0221871305257082, -0.06683088093996048, 0.011696147732436657, -0.012102887034416199, 0.1230638176202774, -0.003422216512262821, -0.020769992843270302], "decoder/fully_connected/biases/ExponentialMovingAverage": [-0.1417086273431778, -0.063409723341465, 0.07783453911542892, 0.022218868136405945, -0.06672723591327667, 0.011728713288903236, -0.012154756113886833, 0.12298564612865448, -0.0033695148304104805, -0.02072983607649803], "decoder/fully_connected/weights": [[0.4346705675125122, -0.6288812160491943, 0.9759125709533691, -1.414121150970459, 0.6068836450576782, 0.8471701145172119, -0.9047076106071472, 0.23901592195034027, -0.6714165806770325, -0.04789505526423454], [0.7171966433525085, -0.05650193244218826, -0.3746199309825897, 0.44121304154396057, -0.5563424229621887, 0.8253037333488464, 0.3529358506202698, 0.43188726902008057, -1.3304048776626587, -0.38533681631088257], [-1.132135272026062, 0.7661900520324707, -0.3101670444011688, 0.20541909337043762, -0.049254175275564194, 0.8787901401519775, -0.782551109790802, 0.14388881623744965, 0.6634266376495361, -0.9423494338989258], [-0.7469539046287537, 0.7604340314865112, -0.8542888760566711, -0.22997406125068665, 0.3149131238460541, 1.2401504516601562, 0.051213815808296204, -1.0430757999420166, -0.870430052280426, 0.4599273204803467], [0.28405192494392395, -0.42903831601142883, 1.1358344554901123, 0.4264305531978607, -0.7951639890670776, -0.3091837167739868, -0.30608561635017395, -0.46152618527412415, -0.6919034719467163, 0.6347294449806213], [0.6217748522758484, 0.5909085273742676, 0.19886231422424316, 0.28172484040260315, -0.6576911807060242, 0.6698877811431885, -0.15385186672210693, 0.058046042919158936, 0.7209758162498474, -0.5325612425804138], [0.7051113843917847, -0.5111966729164124, 0.3034578263759613, 0.8501494526863098, -0.9066033959388733, 0.814079761505127, -0.05527593195438385, -0.506393313407898, 0.8724029064178467, -0.30179932713508606], [0.77013099193573, 0.8569599986076355, 0.9394263625144958, 0.585838258266449, 1.266592264175415, -0.7839666604995728, 0.3619135022163391, -0.9472489953041077, -0.34040483832359314, -0.4475208520889282], [1.0509986877441406, -0.5668795108795166, -0.6589707732200623, -0.6177061796188354, 0.6756412982940674, -0.5910016894340515, 0.039376791566610336, 0.7184748649597168, 0.17742811143398285, 0.2064996063709259], [0.7747598886489868, 0.00404977984726429, -0.188910573720932, -0.4723147451877594, -1.2389339208602905, -0.2531462609767914, 0.47273242473602295, 0.13967092335224152, -0.22223901748657227, 0.44887876510620117], [-0.8385350704193115, -1.0470752716064453, -0.2871307134628296, -0.30529701709747314, 0.30378925800323486, 0.289840966463089, 0.5661068558692932, -0.9772877097129822, 0.170667827129364, 0.7448825240135193], [-0.8077905178070068, 0.5446986556053162, -0.29676711559295654, 0.7987862825393677, -0.5856624841690063, -0.43136098980903625, -0.7007800340652466, 0.5962961912155151, 0.48006656765937805, 0.8833449482917786], [0.47622865438461304, -0.9803001284599304, -0.6507974863052368, 1.3685044050216675, 0.33631667494773865, 0.05109132453799248, -0.9764470458030701, 0.2336941808462143, -0.41408464312553406, 0.7897346019744873], [-0.64384526014328, 0.44574299454689026, 1.0432783365249634, 0.5625534057617188, -0.12033995240926743, -0.24494072794914246, -1.0846701860427856, 0.25666797161102295, 0.06811258941888809, 0.614902138710022], [0.23035532236099243, -0.41083601117134094, -0.16328862309455872, -0.27119192481040955, 0.4881855249404907, 0.23086129128932953, -0.5878157019615173, -1.144583821296692, 1.2026481628417969, 0.6838943362236023], [-0.845314621925354, -0.881851077079773, 0.6702691316604614, 0.6618331670761108, -0.47072792053222656, 0.16419970989227295, 0.8013378977775574, -0.19448915123939514, 0.03064994513988495, -0.8794680237770081]], "decoder/fully_connected/weights/ExponentialMovingAverage": [[0.4343320429325104, -0.6283310055732727, 0.9748284220695496, -1.4128366708755493, 0.6064197421073914, 0.8462058305740356, -0.9036316871643066, 0.23866641521453857, -0.6708403825759888, -0.04790502414107323], [0.7168044447898865, -0.05654670298099518, -0.3744278848171234, 0.44065386056900024, -0.5561131238937378, 0.8246907591819763, 0.35256707668304443, 0.4316254258155823, -1.3292123079299927, -0.3850626051425934], [-1.1316008567810059, 0.7656237483024597, -0.31021636724472046, 0.20520253479480743, -0.049353357404470444, 0.8779096007347107, -0.781955361366272, 0.14389052987098694, 0.6628568768501282, -0.9414910674095154], [-0.7463828325271606, 0.7594844698905945, -0.853702187538147, -0.22994567453861237, 0.31462499499320984, 1.2391705513000488, 0.05100715160369873, -1.0423297882080078, -0.8697255253791809, 0.45951467752456665], [0.284022718667984, -0.4287042021751404, 1.1347655057907104, 0.4259815812110901, -0.7943704724311829, -0.30896440148353577, -0.30588170886039734, -0.4611174762248993, -0.691246509552002, 0.6339462399482727], [0.621359646320343, 0.5906168818473816, 0.19887255132198334, 0.2814934253692627, -0.6573635935783386, 0.6696111559867859, -0.15366525948047638, 0.05821925401687622, 0.7207728028297424, -0.5322297811508179], [0.7046133279800415, -0.5107738971710205, 0.30335375666618347, 0.8493925929069519, -0.906044602394104, 0.8135416507720947, -0.05521547421813011, -0.5058428049087524, 0.8717934489250183, -0.3014984130859375], [0.769362211227417, 0.8563042283058167, 0.9388126730918884, 0.5853458046913147, 1.2656105756759644, -0.7831003665924072, 0.36195218563079834, -0.9462767243385315, -0.3399375081062317, -0.4470859467983246], [1.0501583814620972, -0.5664672255516052, -0.6583212018013, -0.6172928810119629, 0.6752739548683167, -0.5906124114990234, 0.03956219181418419, 0.7177837491035461, 0.17728199064731598, 0.20637203752994537], [0.7742288112640381, 0.0039770714938640594, -0.188664510846138, -0.4720279574394226, -1.2377079725265503, -0.2530806064605713, 0.47233617305755615, 0.13949711620807648, -0.22222557663917542, 0.44816502928733826], [-0.8377648591995239, -1.0463875532150269, -0.28721746802330017, -0.30505087971687317, 0.3036901354789734, 0.28946802020072937, 0.5653952360153198, -0.9767194390296936, 0.17026762664318085, 0.744221568107605], [-0.8071835041046143, 0.5443625450134277, -0.2963349223136902, 0.7981282472610474, -0.5850446224212646, -0.4309358298778534, -0.7003083825111389, 0.5959182381629944, 0.4798034727573395, 0.8827530145645142], [0.4759173095226288, -0.9794671535491943, -0.6500869393348694, 1.3672386407852173, 0.3360481560230255, 0.05099567025899887, -0.9758201837539673, 0.23360218107700348, -0.41364482045173645, 0.7893468737602234], [-0.6434102058410645, 0.44558724761009216, 1.0424323081970215, 0.5623366236686707, -0.12022320926189423, -0.2446974515914917, -1.0838757753372192, 0.25634998083114624, 0.06812642514705658, 0.6146214008331299], [0.23008182644844055, -0.41051024198532104, -0.1631750762462616, -0.2709623873233795, 0.487991064786911, 0.2307114452123642, -0.5873501896858215, -1.1436495780944824, 1.2016462087631226, 0.6834395527839661], [-0.8444722890853882, -0.8810479044914246, 0.6694933772087097, 0.6611886620521545, -0.4705337584018707, 0.1638527512550354, 0.8005396127700806, -0.19452612102031708, 0.03056550957262516, -0.8788723945617676]]}