{"decoder/fully_connected/biases": [-0.009423669427633286, 0.08609620481729507, -0.05876540020108223, -0.006701525766402483, -0.011988689191639423, -0.08559156209230423, 0.004154232330620289, 0.06878731399774551, -0.05807560309767723, 0.03528155758976936], "decoder/fully_connected/biases/ExponentialMovingAverage": [-0.009467069990932941, 0.08599325269460678, -0.05872603505849838, -0.006706561893224716, -0.011907701380550861, -0.08556851744651794, 0.004192057531327009, 0.06874271482229233, -0.05808253586292267, 0.0353206992149353], "decoder/fully_connected/weights": [[1.1043885946273804, 1.3832292556762695, -0.16287861764431, 0.438671350479126, -0.6277845501899719, 0.8877394199371338, 0.3537726104259491, -0.8220568895339966, -1.1267117261886597, -1.0268499851226807], [-0.5686424970626831, -0.9716302752494812, 0.2596641182899475, 0.7601456046104431, -0.2393151819705963, -0.06567258387804031, -0.8828955292701721, 0.6265683174133301, 0.0566721074283123, -1.2621679306030273], [-0.51998370885849, -0.42878198623657227, -1.0526444911956787, -0.16913913190364838, 0.3996734619140625, 0.9524683952331543, -0.008999768644571304, -0.6829882860183716, -0.9260892271995544, 0.9310789108276367], [-0.8103711605072021, 0.36137527227401733, 1.358814001083374, -1.1784201860427856, -0.24622133374214172, 1.0278184413909912, -1.167992115020752, -0.19468529522418976, -0.40864047408103943, 0.657824695110321], [-0.5722799301147461, 0.589440107345581, -1.0226017236709595, 1.0917718410491943, 1.2652126550674438, -0.9241140484809875, -1.0641814470291138, -0.5247337818145752, -0.1951736956834793, 0.2993529736995697], [-0.11674666404724121, -0.28673434257507324, -0.8509175181388855, 0.4789210259914398, -0.022332193329930305, 0.5506678223609924, 0.08239378035068512, -0.002713986672461033, 0.5236355662345886, 1.0125335454940796], [0.7500448226928711, 0.9830618500709534, -0.11518565565347672, 0.8660979270935059, -0.6982877850532532, -1.1519756317138672, -0.5953632593154907, -0.028841255232691765, -1.0671439170837402, 1.0930794477462769], [0.5123775601387024, 1.115565538406372, -0.8886753916740417, -0.9009268879890442, 1.1871826648712158, -0.3766522705554962, -1.454777717590332, -0.2834336459636688, 1.006916880607605, -1.067417025566101], [1.0657613277435303, 0.163984477519989, 1.2856719493865967, -1.0445318222045898, -0.2754010856151581, -0.9219136834144592, -0.5325297117233276, -1.1486928462982178, 0.9424963593482971, 1.0180131196975708], [-1.1967400312423706, 0.8823058605194092, 1.2859913110733032, 1.0846188068389893, -0.30921921133995056, -0.842663049697876, 0.9467167854309082, -1.0200785398483276, 0.010442602448165417, -0.7135637998580933], [1.4827302694320679, -0.9738001823425293, -0.12429938465356827, 0.9007570743560791, -0.6238070726394653, 0.6588979363441467, 0.12206833064556122, -1.2939369678497314, 1.236108422279358, 0.1014421209692955], [1.0843420028686523, -0.5665196180343628, 1.072439193725586, 0.5886343121528625, 0.10722652822732925, -0.3633493483066559, -0.74747633934021, 0.39649468660354614, -1.1499674320220947, 0.7435885071754456], [-0.32154712080955505, -0.8751983642578125, 0.016080327332019806, 0.679269552230835, -0.7931481003761292, -0.8774396181106567, -0.7406315803527832, 0.9670659899711609, 0.36045217514038086, -0.29764044284820557], [-0.7738598585128784, -0.5360397100448608, -0.08699067682027817, -0.20884893834590912, 0.5198861360549927, -1.0360567569732666, 1.2850924730300903, -0.9271432161331177, 0.44356948137283325, 0.32966500520706177], [-0.43999022245407104, -1.1041620969772339, 0.8020663261413574, 0.8279401659965515, 1.0759929418563843, 0.8526192307472229, -0.7670164108276367, -1.2440264225006104, -0.7007836699485779, -0.11935672163963318], [-1.1526079177856445, 1.0492184162139893, 0.13822677731513977, 0.878823459148407, -1.3995367288589478, 0.7444462180137634, -0.8367322087287903, -0.22102434933185577, 1.1914955377578735, 0.9953968524932861]], "decoder/fully_connected/weights/ExponentialMovingAverage": [[1.1037864685058594, 1.3821539878845215, -0.16262607276439667, 0.43849697709083557, -0.627271831035614, 0.8869366645812988, 0.3534497618675232, -0.8214337229728699, -1.1260106563568115, -1.0260441303253174], [-0.5688464641571045, -0.9712274074554443, 0.25950750708580017, 0.7597259283065796, -0.23932434618473053, -0.06566739827394485, -0.8825435638427734, 0.626083493232727, 0.056674737483263016, -1.2614985704421997], [-0.5198044776916504, -0.428731232881546, -1.052123785018921, -0.16898488998413086, 0.39954712986946106, 0.9519836902618408, -0.009136762470006943, -0.6827470660209656, -0.9258137941360474, 0.930414080619812], [-0.8098711371421814, 0.36111658811569214, 1.3580893278121948, -1.1776843070983887, -0.24637074768543243, 1.0271763801574707, -1.1673381328582764, -0.194552481174469, -0.4082331359386444, 0.657541036605835], [-0.5720549821853638, 0.5891707539558411, -1.0222450494766235, 1.0908849239349365, 1.2644153833389282, -0.9235343933105469, -1.0635026693344116, -0.5244143605232239, -0.19493484497070312, 0.29896628856658936], [-0.11679349839687347, -0.28680169582366943, -0.8507096767425537, 0.4789336621761322, -0.022126615047454834, 0.550697386264801, 0.08231706917285919, -0.0026484387926757336, 0.5234904289245605, 1.012292504310608], [0.7495925426483154, 0.9824855327606201, -0.11502844840288162, 0.8655792474746704, -0.6976010799407959, -1.1511534452438354, -0.5949963927268982, -0.02887541987001896, -1.066430926322937, 1.0921742916107178], [0.5119405388832092, 1.1147898435592651, -0.8882322311401367, -0.9004212617874146, 1.1862276792526245, -0.3766064941883087, -1.4537681341171265, -0.2832662761211395, 1.0059770345687866, -1.0665512084960938], [1.0650641918182373, 0.16386742889881134, 1.2850440740585327, -1.0437467098236084, -0.2751329243183136, -0.9211728572845459, -0.5321787595748901, -1.1479233503341675, 0.9418086409568787, 1.0173951387405396], [-1.196007251739502, 0.8817203640937805, 1.2852057218551636, 1.083727478981018, -0.30927592515945435, -0.8419903516769409, 0.9461234211921692, -1.0192064046859741, 0.010572518222033978, -0.7128587961196899], [1.4818918704986572, -0.973097562789917, -0.12423662096261978, 0.9002614617347717, -0.6232616305351257, 0.6583316326141357, 0.12219419330358505, -1.2930389642715454, 1.2351230382919312, 0.10154291242361069], [1.0838841199874878, -0.5661904811859131, 1.0718833208084106, 0.5884731411933899, 0.10721800476312637, -0.36306658387184143, -0.7470088005065918, 0.3961438536643982, -1.149237871170044, 0.7433800101280212], [-0.3217206597328186, -0.8748766183853149, 0.016026269644498825, 0.6790280938148499, -0.7930977940559387, -0.8770886659622192, -0.7402278184890747, 0.9664156436920166, 0.3603898584842682, -0.29746121168136597], [-0.773576021194458, -0.5357892513275146, -0.0870426595211029, -0.208868145942688, 0.5197407007217407, -1.0354790687561035, 1.2843343019485474, -0.926654040813446, 0.4433057904243469, 0.32932859659194946], [-0.4397408366203308, -1.1035170555114746, 0.8015259504318237, 0.8271742463111877, 1.0749859809875488, 0.8520396947860718, -0.7663871645927429, -1.2430497407913208, -0.7003928422927856, -0.11936250329017639], [-1.1517795324325562, 1.0484877824783325, 0.13836054503917694, 0.8782855272293091, -1.3984838724136353, 0.7438918352127075, -0.835894763469696, -0.22088623046875, 1.1905207633972168, 0.9948222041130066]]}